~o
<STREAMINFO> 1 39
<VECSIZE> 39<NULLD><MFCC_E_D_A_Z><DIAGC>
~s "silst"
<NUMMIXES> 14
<MIXTURE> 1 9.115701e-02
<MEAN> 39
 -1.646281e+00 2.054216e+00 5.996402e+00 5.432780e+00 2.956056e+00 2.915391e+00 -1.755971e+00 -5.152377e-01 -1.816877e+00 8.245847e-01 1.542231e+00 6.711968e-01 4.209156e-01 -3.283300e+00 -1.763948e+00 -8.742621e-01 1.484396e+00 1.575314e+00 2.721501e+00 2.896962e+00 3.162683e+00 2.079792e+00 2.210480e+00 1.168827e+00 5.601810e-01 -1.354287e-01 4.951147e-02 1.035309e-01 -5.537589e-01 -5.370747e-01 -3.242241e-01 -1.622161e-01 2.863255e-01 4.036313e-01 4.321940e-01 -4.042785e-02 -4.696963e-02 -1.521569e-01 1.746849e-02
<VARIANCE> 39
 1.885555e+01 3.740386e+01 1.859687e+01 2.654744e+01 2.308262e+01 3.249244e+01 2.948961e+01 3.112578e+01 3.329326e+01 3.219896e+01 3.485415e+01 3.033581e+01 2.357815e-02 1.600282e+00 2.066437e+00 2.790816e+00 2.511775e+00 2.952107e+00 3.241222e+00 2.898772e+00 3.074690e+00 3.124887e+00 3.608451e+00 3.551117e+00 3.691921e+00 1.427211e-03 3.181378e-01 4.615321e-01 3.420114e-01 5.183252e-01 4.828762e-01 5.878956e-01 5.522268e-01 6.091469e-01 6.672842e-01 5.775167e-01 5.521082e-01 5.180407e-01 3.820898e-04
<GCONST> 9.803422e+01
<MIXTURE> 2 5.987389e-02
<MEAN> 39
 -5.839235e-01 -2.539340e+00 -2.277430e-01 -2.108127e+00 2.923074e-01 3.317293e+00 5.051738e+00 3.539879e+00 2.673317e+00 2.544524e+00 2.879016e+00 2.975756e+00 4.475563e-01 -9.989905e-01 -4.574849e-01 -3.616975e-01 7.185245e-01 3.987851e-01 2.961879e-01 3.566541e-01 5.092814e-01 1.111978e-01 4.159198e-01 5.167192e-01 8.417614e-02 -3.913183e-02 1.468534e-02 2.321250e-01 1.161250e-01 2.716241e-01 8.089902e-02 -1.929961e-01 -4.126510e-01 -2.686332e-01 -8.875731e-02 -6.178235e-02 -2.834908e-01 -3.392534e-01 1.232764e-02
<VARIANCE> 39
 2.233943e+01 6.155207e+01 5.079770e+01 5.826370e+01 6.158086e+01 8.322129e+01 8.198775e+01 7.349251e+01 7.453516e+01 9.168865e+01 1.134630e+02 7.118096e+01 4.648681e-02 2.092144e+00 4.388872e+00 4.274187e+00 4.700203e+00 4.420294e+00 7.433796e+00 7.315128e+00 5.721592e+00 7.349458e+00 8.212723e+00 8.886795e+00 7.310307e+00 5.822808e-03 3.576419e-01 6.381847e-01 6.757668e-01 9.523587e-01 1.032723e+00 1.331963e+00 1.414864e+00 1.230467e+00 1.494174e+00 1.789814e+00 2.081352e+00 1.589208e+00 8.178274e-04
<GCONST> 1.284981e+02
<MIXTURE> 3 6.905923e-02
<MEAN> 39
 -3.694571e+00 -7.002283e-01 5.383154e+00 6.062760e+00 5.288050e+00 6.438636e+00 4.587742e+00 5.429151e+00 3.379041e+00 4.334819e+00 2.871275e+00 9.573722e-01 4.709135e-02 -5.911971e-01 2.961144e-01 1.709337e-01 5.999496e-01 3.296052e-01 3.996551e-01 2.369218e-01 4.424687e-01 1.849471e-01 5.095151e-02 -1.873912e-01 -2.161117e-01 -1.778380e-04 1.393218e-01 1.358741e-01 -1.559265e-01 -1.447640e-01 -1.540070e-01 -1.728007e-01 -2.205993e-01 -1.839058e-01 -6.873564e-02 -1.308947e-01 2.556119e-02 1.013522e-01 2.291260e-02
<VARIANCE> 39
 1.893410e+01 3.584825e+01 1.985316e+01 2.123899e+01 2.600300e+01 2.110981e+01 2.094124e+01 2.873469e+01 2.399646e+01 1.610904e+01 2.007538e+01 1.502093e+01 2.354209e-02 1.388383e+00 2.058622e+00 1.523159e+00 1.702278e+00 1.604439e+00 2.114668e+00 2.360809e+00 2.363870e+00 2.581247e+00 1.874347e+00 1.783733e+00 1.660545e+00 1.867448e-03 3.071267e-01 4.948206e-01 2.979251e-01 3.140478e-01 3.804910e-01 4.381589e-01 4.607236e-01 4.935852e-01 4.905059e-01 3.593891e-01 3.274167e-01 2.768261e-01 6.094885e-04
<GCONST> 8.712470e+01
<MIXTURE> 4 3.779466e-02
<MEAN> 39
 3.666233e+00 6.003062e+00 4.943810e+00 9.820458e-01 -2.088062e+00 -1.414454e+00 -3.947045e+00 -3.627969e-02 1.857406e+00 2.646789e+00 4.090429e+00 3.758265e+00 4.743313e-01 2.015858e+00 2.012716e+00 -8.477510e-01 -2.109184e+00 -2.150681e+00 -2.252514e+00 -2.196427e+00 -1.655337e+00 -1.332011e+00 -7.683862e-01 -3.051727e-01 2.125398e-02 1.570773e-01 -5.095959e-01 -4.509385e-01 -4.152854e-01 -1.895592e-01 4.371421e-01 3.574232e-01 5.865391e-01 4.064558e-01 3.178063e-02 -1.591176e-01 -3.833493e-01 -4.024201e-01 -1.337242e-02
<VARIANCE> 39
 2.978087e+01 4.270197e+01 5.334866e+01 3.715820e+01 3.417345e+01 3.594257e+01 4.562187e+01 4.399237e+01 4.472653e+01 3.975132e+01 4.797690e+01 3.764246e+01 3.262199e-02 2.866585e+00 4.736280e+00 4.391235e+00 3.448415e+00 4.426183e+00 5.056622e+00 5.360195e+00 4.739707e+00 4.093399e+00 3.475921e+00 4.692801e+00 4.117249e+00 4.899214e-03 3.862568e-01 3.498623e-01 5.408565e-01 6.701414e-01 4.883004e-01 6.962867e-01 8.457812e-01 8.630651e-01 8.442474e-01 6.747979e-01 7.064701e-01 6.885454e-01 4.829195e-04
<GCONST> 1.113324e+02
<MIXTURE> 5 7.214666e-02
<MEAN> 39
 4.297878e+00 5.796565e+00 7.063761e+00 1.295050e+00 -1.753088e+00 -2.676233e+00 -6.781803e+00 -4.452448e+00 -3.632095e+00 -2.637450e+00 -8.798079e-01 -9.429542e-01 6.893636e-01 -2.168830e+00 -5.186802e-01 6.997855e-01 2.952326e+00 2.078671e+00 2.224263e+00 1.684584e+00 1.457005e+00 3.357380e-01 1.623446e+00 6.300251e-01 6.583847e-01 -1.137794e-01 -9.192373e-01 -8.107979e-01 -8.047652e-01 -1.879013e-01 2.523599e-01 6.970187e-01 1.073262e+00 9.925503e-01 7.916594e-01 4.800974e-01 3.148166e-01 8.799840e-02 -2.239372e-02
<VARIANCE> 39
 1.784666e+01 3.120942e+01 1.935646e+01 2.296905e+01 1.882773e+01 3.329354e+01 3.332238e+01 3.488692e+01 3.696958e+01 3.703576e+01 3.353016e+01 4.274590e+01 1.367408e-02 1.893476e+00 1.867607e+00 2.093069e+00 2.951251e+00 2.853922e+00 3.339202e+00 3.697889e+00 4.968806e+00 4.515249e+00 4.130635e+00 3.498841e+00 3.375851e+00 9.968620e-04 2.924938e-01 2.906072e-01 4.019964e-01 3.799617e-01 4.210019e-01 5.858368e-01 5.685931e-01 6.879271e-01 6.911118e-01 5.865861e-01 5.299197e-01 6.732286e-01 1.858678e-04
<GCONST> 9.732011e+01
<MIXTURE> 6 6.513843e-02
<MEAN> 39
 -5.914495e+00 -4.664896e-01 4.630170e+00 6.593005e+00 5.307062e+00 8.282783e+00 5.328371e+00 8.278867e+00 4.503362e+00 5.538783e+00 3.023136e+00 1.276762e-01 2.269152e-01 -2.291950e+00 -1.188233e+00 -6.976006e-01 1.209479e+00 1.469748e+00 2.278630e+00 2.751691e+00 3.025295e+00 2.110791e+00 1.737267e+00 8.866952e-01 2.853216e-01 -9.431585e-02 6.521980e-01 5.158370e-01 -1.194249e-01 -4.733739e-01 -5.326315e-01 -7.933367e-01 -7.060506e-01 -8.230246e-01 -5.374169e-01 -6.614438e-01 -2.482094e-01 -1.268069e-01 3.898475e-02
<VARIANCE> 39
 1.806390e+01 3.228555e+01 1.786117e+01 2.597482e+01 2.690594e+01 2.669661e+01 2.392792e+01 2.745853e+01 3.044799e+01 2.309531e+01 2.881437e+01 2.684928e+01 2.031820e-02 1.499415e+00 1.734966e+00 1.948272e+00 1.666122e+00 2.276706e+00 2.687050e+00 2.660494e+00 2.469251e+00 2.679534e+00 2.736207e+00 3.213601e+00 3.049896e+00 2.273258e-03 1.966146e-01 4.208822e-01 3.170375e-01 4.404208e-01 4.912436e-01 4.831173e-01 4.589634e-01 5.126223e-01 5.953176e-01 4.893959e-01 4.509228e-01 5.040120e-01 2.682529e-04
<GCONST> 9.229150e+01
<MIXTURE> 7 6.401718e-02
<MEAN> 39
 4.287527e-01 5.598622e+00 7.128684e+00 6.436851e+00 9.086391e-01 5.399674e+00 1.872409e-01 5.234339e-01 2.411151e+00 2.090923e-01 -1.631438e+00 -1.039713e+00 6.836013e-01 -3.215853e+00 -2.364477e-01 -2.290661e-01 2.153700e+00 2.256555e+00 2.386659e+00 2.681046e-01 1.901194e+00 5.017931e-01 9.508814e-02 1.693445e+00 7.353156e-01 -1.053425e-01 -5.046744e-01 -1.089486e+00 -9.325849e-01 -7.152101e-01 -2.942941e-01 -5.502585e-01 2.524870e-01 1.187866e-01 1.896652e-03 1.754011e-01 2.582525e-01 3.568502e-01 -1.861508e-02
<VARIANCE> 39
 1.915941e+01 2.392271e+01 1.519468e+01 2.275268e+01 2.908330e+01 2.654859e+01 3.014354e+01 3.389031e+01 2.644886e+01 2.643353e+01 2.332395e+01 2.086142e+01 7.749220e-03 1.704778e+00 2.234131e+00 2.313560e+00 2.632720e+00 2.908294e+00 3.765636e+00 4.625159e+00 3.884193e+00 3.509516e+00 4.631469e+00 3.095423e+00 2.591607e+00 9.827353e-04 2.860886e-01 2.540885e-01 2.575790e-01 4.195666e-01 4.776931e-01 4.999958e-01 4.892834e-01 5.559208e-01 5.353864e-01 5.585547e-01 4.519064e-01 4.356457e-01 1.519604e-04
<GCONST> 9.227253e+01
<MIXTURE> 8 6.960203e-02
<MEAN> 39
 -3.310002e+00 -2.669092e+00 3.498047e+00 5.801726e+00 6.181924e+00 5.578062e+00 4.597723e+00 4.311174e+00 3.837171e+00 3.898184e+00 3.140976e+00 1.748341e+00 1.693036e-01 8.016977e-01 8.564015e-01 -7.644822e-02 -4.440291e-01 -9.713614e-01 -9.414098e-01 -8.215203e-01 -7.800853e-01 -4.535947e-01 1.898083e-01 -2.633263e-01 -9.140640e-02 8.220705e-02 6.371388e-01 1.989812e-01 -3.790660e-01 -6.568613e-01 -6.470878e-01 -4.551198e-01 -3.581237e-01 -3.588696e-01 -4.558823e-01 -2.693485e-01 -2.396056e-01 -3.057756e-02 4.334520e-02
<VARIANCE> 39
 1.974793e+01 5.611037e+01 4.576029e+01 3.350909e+01 3.581022e+01 5.038086e+01 4.164782e+01 4.653348e+01 4.301918e+01 3.252360e+01 3.702105e+01 3.028072e+01 4.612521e-02 3.000146e+00 5.767817e+00 4.029576e+00 4.489737e+00 3.678964e+00 4.483846e+00 5.588889e+00 5.042070e+00 4.674500e+00 4.132223e+00 4.350345e+00 3.415673e+00 8.504701e-03 4.327708e-01 8.638026e-01 6.041623e-01 6.061049e-01 6.036624e-01 9.127120e-01 8.935558e-01 8.697215e-01 8.767747e-01 7.265580e-01 7.766054e-01 6.098493e-01 9.782313e-04
<GCONST> 1.140950e+02
<MIXTURE> 9 7.841764e-02
<MEAN> 39
 -1.946228e+00 5.620224e-01 2.158324e+00 2.349526e+00 2.183098e+00 3.855919e+00 1.093433e+00 3.164742e+00 3.682140e+00 1.001577e+00 1.799796e+00 8.515790e-01 -7.778182e-02 7.493477e-02 1.600739e-01 7.202195e-02 -3.174172e-02 -7.487578e-02 3.173150e-02 3.386508e-02 8.436755e-02 -1.226836e-02 -9.127302e-03 -2.524191e-02 2.614234e-02 -1.953871e-03 -9.380152e-03 -2.310035e-02 1.668409e-02 2.611531e-02 2.029507e-02 1.415372e-02 1.278320e-02 8.317508e-03 -2.212361e-02 4.364003e-02 1.786949e-02 -5.323267e-03 2.997492e-03
<VARIANCE> 39
 6.546448e+00 3.219601e+01 1.375418e+01 1.447428e+01 1.462088e+01 2.160919e+01 2.037593e+01 2.363234e+01 1.416746e+01 2.245954e+01 2.107845e+01 1.639008e+01 5.810401e-03 1.758271e-01 5.425752e-01 5.128787e-01 6.415018e-01 1.007754e+00 1.059355e+00 1.197305e+00 1.302491e+00 1.183521e+00 1.360186e+00 1.310290e+00 1.096332e+00 4.206555e-05 4.661776e-02 9.003603e-02 1.022918e-01 1.292859e-01 2.031685e-01 2.248279e-01 2.404867e-01 2.621663e-01 2.523986e-01 2.713533e-01 2.763570e-01 2.423937e-01 3.337513e-05
<GCONST> 5.718315e+01
<MIXTURE> 10 9.243546e-02
<MEAN> 39
 -6.775818e+00 -2.377369e+00 -7.661942e-02 3.045028e+00 1.419376e+00 4.404252e+00 1.519572e+00 3.921079e+00 4.270127e+00 1.600960e+00 2.681803e+00 2.629702e+00 2.465161e-01 -2.148369e+00 -2.060345e+00 -1.929115e+00 -1.212437e+00 -7.805675e-01 -4.998164e-01 -4.660186e-02 4.638338e-01 5.509400e-01 4.703516e-01 6.460522e-01 5.621127e-01 -1.055555e-01 6.057167e-01 4.750589e-01 3.677356e-01 -4.859118e-02 -7.942625e-02 -2.123333e-01 -9.793578e-02 -3.844506e-01 -1.616498e-01 -1.128715e-01 -3.314173e-01 -2.469510e-01 3.155945e-02
<VARIANCE> 39
 3.277428e+01 3.655419e+01 2.246476e+01 2.362510e+01 2.822240e+01 3.337506e+01 3.569054e+01 3.578637e+01 3.031993e+01 2.676701e+01 2.424043e+01 1.903983e+01 1.822369e-02 9.263491e-01 1.157372e+00 1.367351e+00 1.404683e+00 1.598213e+00 2.160525e+00 2.568760e+00 2.551371e+00 2.668290e+00 2.380000e+00 2.579200e+00 2.148630e+00 1.268460e-03 2.405356e-01 2.682225e-01 2.608840e-01 3.286183e-01 4.174905e-01 4.720960e-01 5.059074e-01 5.425372e-01 4.274053e-01 4.578810e-01 4.525369e-01 3.667389e-01 2.259977e-04
<GCONST> 8.866481e+01
<MIXTURE> 11 9.104732e-02
<MEAN> 39
 -3.833704e+00 8.564111e-01 4.608458e+00 8.091731e+00 4.910197e+00 7.644519e+00 2.822750e+00 3.410791e+00 2.063816e+00 7.052420e-02 1.297671e+00 7.215755e-01 4.783139e-01 -3.362501e+00 -2.238601e+00 -2.183330e+00 -1.361920e-01 3.389886e-01 7.378912e-01 4.933148e-01 1.294806e+00 7.247061e-01 5.288513e-01 1.405653e+00 9.665474e-01 -1.280998e-01 1.607619e-01 -2.014488e-01 -4.844519e-01 -9.648548e-01 -7.592882e-01 -7.953131e-01 -2.214803e-01 -3.484422e-01 9.145543e-02 1.594515e-01 -1.924119e-01 2.049703e-02 9.354284e-03
<VARIANCE> 39
 2.567060e+01 3.734715e+01 1.930045e+01 2.025314e+01 2.477737e+01 3.390554e+01 3.806028e+01 3.650591e+01 2.815361e+01 2.861468e+01 2.400427e+01 1.884370e+01 1.189505e-02 1.361216e+00 1.804269e+00 1.830346e+00 2.134091e+00 2.215670e+00 2.525667e+00 2.891153e+00 3.033190e+00 2.742643e+00 3.060157e+00 2.720049e+00 2.377436e+00 9.795567e-04 3.433915e-01 4.489034e-01 2.721355e-01 3.484619e-01 4.034313e-01 5.123670e-01 5.834898e-01 4.923150e-01 5.443157e-01 5.433171e-01 5.015900e-01 4.100652e-01 2.594273e-04
<GCONST> 9.196975e+01
<MIXTURE> 12 6.636877e-02
<MEAN> 39
 4.334735e+00 2.471611e+00 8.377606e+00 6.883687e+00 2.567406e+00 2.587859e+00 9.909209e-01 -2.808619e+00 -2.575193e+00 -1.035570e+00 -1.817147e+00 6.336563e-01 5.716053e-01 -2.585133e+00 -1.677957e+00 -1.029442e+00 1.263323e+00 1.025197e+00 1.425221e+00 1.281963e+00 1.430348e+00 3.309756e-01 6.076792e-01 1.190036e+00 3.385387e-01 -1.281113e-01 -8.343373e-01 -5.613813e-01 -1.273767e+00 -9.430338e-01 -5.298964e-01 -1.510366e-01 8.365178e-02 5.494545e-01 7.356831e-01 4.382448e-01 2.722260e-01 3.841527e-02 -4.231904e-03
<VARIANCE> 39
 1.259508e+01 3.900909e+01 2.246206e+01 2.286429e+01 2.858075e+01 2.783073e+01 4.210220e+01 3.966289e+01 3.834094e+01 3.676219e+01 2.569834e+01 2.864057e+01 1.085940e-02 1.562502e+00 1.771517e+00 2.861073e+00 3.331996e+00 2.299237e+00 2.508441e+00 2.549091e+00 3.474161e+00 3.791343e+00 3.795596e+00 3.287405e+00 2.845478e+00 9.547120e-04 2.664678e-01 3.591849e-01 3.458860e-01 3.232481e-01 3.690220e-01 5.100359e-01 6.323110e-01 6.666090e-01 6.885905e-01 5.779144e-01 4.821220e-01 4.839314e-01 2.310922e-04
<GCONST> 9.487813e+01
<MIXTURE> 13 6.151873e-02
<MEAN> 39
 -8.112568e+00 -2.877535e+00 2.443679e+00 7.194405e+00 5.780353e+00 8.128627e+00 4.119428e+00 6.580326e+00 3.123587e+00 4.710537e+00 6.389167e+00 3.607500e+00 2.359513e-01 -1.719471e+00 -1.131465e+00 -9.785599e-01 -1.181783e-01 1.684787e-01 6.725909e-01 1.072665e+00 1.436523e+00 1.408805e+00 1.200692e+00 9.436429e-01 7.268463e-01 -7.678231e-02 8.475085e-01 5.748543e-01 1.830376e-01 -4.561517e-01 -5.601642e-01 -6.868618e-01 -5.726542e-01 -6.954467e-01 -3.357019e-01 -6.141670e-01 -7.713570e-01 -5.287340e-01 4.000826e-02
<VARIANCE> 39
 1.828913e+01 2.957300e+01 1.991460e+01 1.860336e+01 1.983368e+01 3.456295e+01 2.979236e+01 3.424749e+01 2.485156e+01 2.922832e+01 2.107713e+01 2.103681e+01 1.849402e-02 1.282341e+00 1.748990e+00 1.622717e+00 1.669597e+00 1.635278e+00 1.882945e+00 2.084744e+00 2.732621e+00 2.254145e+00 2.738304e+00 2.957824e+00 2.595270e+00 1.837723e-03 1.314889e-01 2.456438e-01 2.400237e-01 3.402085e-01 3.561520e-01 4.403417e-01 4.569772e-01 5.077571e-01 4.572799e-01 5.598005e-01 4.317536e-01 3.969196e-01 2.688776e-04
<GCONST> 8.766422e+01
<MIXTURE> 14 8.141435e-02
<MEAN> 39
 -2.727896e+00 -4.023656e+00 6.088113e-01 1.730783e+00 2.682264e+00 2.713576e+00 1.478801e+00 7.772735e-01 2.085253e+00 3.939204e-01 6.583500e-01 6.847493e-01 7.978655e-02 -6.843520e-01 -1.136293e-01 -2.864184e-02 2.840688e-01 -1.964894e-02 5.014818e-02 -4.761865e-02 -1.654600e-01 -2.104775e-01 -3.202429e-02 6.228700e-02 -1.021112e-01 -3.163036e-02 3.117199e-01 4.010126e-01 1.696657e-01 2.325692e-01 8.496728e-02 2.298148e-02 -3.695220e-02 5.784257e-02 3.434519e-02 1.661519e-02 1.660517e-03 3.929200e-02 3.012724e-02
<VARIANCE> 39
 1.131925e+01 4.088165e+01 2.405240e+01 3.101192e+01 2.717993e+01 2.767227e+01 3.382214e+01 3.904474e+01 3.425703e+01 3.560035e+01 3.460476e+01 2.146201e+01 1.949894e-02 1.239385e+00 1.376852e+00 1.486473e+00 2.028677e+00 2.239012e+00 2.202753e+00 2.123015e+00 2.854287e+00 2.718380e+00 2.598858e+00 2.355186e+00 2.012874e+00 3.377494e-03 2.126064e-01 3.068526e-01 2.836492e-01 3.371889e-01 3.671657e-01 4.316818e-01 4.633458e-01 5.444329e-01 5.506554e-01 5.364578e-01 4.324618e-01 3.716316e-01 4.666889e-04
<GCONST> 9.185965e+01
~h "#i"
<BEGINHMM>
<NUMSTATES> 10
<STATE> 2
<NUMMIXES> 9
<MIXTURE> 1 6.805748e-02
<MEAN> 39
 -1.512434e+00 9.873708e+00 -5.297333e+00 -4.002286e+00 -6.347212e+00 -5.478097e+00 -1.320476e+00 -1.918067e+00 3.563116e-01 -1.573849e-01 1.783005e+00 4.762215e+00 8.402441e-01 -1.308698e+00 -1.589475e-01 -2.878535e-01 2.491073e-01 -1.348229e-01 -2.565289e-01 -8.865790e-01 -1.133142e+00 -4.517527e-01 4.430684e-01 1.578968e+00 1.886288e+00 4.331743e-02 1.775936e-01 -2.310256e-01 5.332208e-01 5.196086e-01 5.114905e-01 5.876222e-01 3.130022e-01 5.128665e-01 3.371364e-01 3.198272e-01 6.934582e-02 -1.308414e-01 -2.503582e-02
<VARIANCE> 39
 1.884268e+01 3.119639e+01 2.318511e+01 1.644620e+01 2.750440e+01 2.325089e+01 4.046470e+01 2.844272e+01 4.624055e+01 5.717101e+01 4.994488e+01 9.894870e+01 6.382091e-03 6.237683e-01 7.425851e-01 9.968920e-01 1.001064e+00 1.342844e+00 1.433758e+00 1.847682e+00 2.639055e+00 3.904027e+00 5.254138e+00 7.027103e+00 8.258657e+00 3.295845e-04 2.058703e-01 2.491961e-01 2.760270e-01 2.383288e-01 3.430337e-01 3.734016e-01 4.006893e-01 3.248262e-01 4.423467e-01 8.038313e-01 7.645767e-01 1.028883e+00 3.240589e-04
<GCONST> 9.027559e+01
<MIXTURE> 2 8.613978e-02
<MEAN> 39
 1.499361e+00 9.566938e+00 -1.785132e+00 -1.868524e+00 -2.679197e+00 -4.020326e+00 1.064935e+00 3.090830e+00 2.060213e+00 4.400179e+00 2.180777e+00 3.580038e+00 6.310893e-01 3.763091e-01 1.377775e+00 8.850577e-02 5.260414e-01 -5.621377e-01 2.389343e-01 -1.814304e-01 1.761376e-02 2.355784e-02 5.668843e-01 -6.315988e-02 4.799779e-01 8.705991e-03 -2.607179e-02 -1.440575e-01 6.297722e-02 -1.559577e-01 -6.535315e-02 8.909290e-02 -2.263433e-01 -1.400626e-01 -2.137632e-01 -2.904494e-01 -1.719353e-01 -1.826570e-01 1.181770e-02
<VARIANCE> 39
 9.009192e+00 3.186541e+01 2.488168e+01 2.351630e+01 2.439636e+01 2.073965e+01 4.072259e+01 3.223661e+01 3.967838e+01 3.685156e+01 5.512781e+01 3.906863e+01 1.505061e-02 5.989819e-01 1.807266e+00 8.823077e-01 1.655817e+00 1.471837e+00 2.011719e+00 3.401816e+00 3.485626e+00 3.160493e+00 2.254262e+00 3.860652e+00 4.074805e+00 1.677492e-03 1.161591e-01 3.569564e-01 1.771427e-01 2.150095e-01 2.415208e-01 3.448068e-01 4.370577e-01 4.720030e-01 4.833585e-01 4.370359e-01 5.610873e-01 5.382171e-01 1.343297e-04
<GCONST> 8.804491e+01
<MIXTURE> 3 1.312251e-01
<MEAN> 39
 -9.057702e-01 1.585378e+01 4.444561e-01 -1.415684e+00 -6.928915e+00 -2.310926e+00 -1.187297e+01 1.590372e+00 -2.277681e+00 -3.835174e+00 4.166384e+00 -4.453213e+00 7.941726e-01 -6.379454e-01 6.883401e-01 -6.599255e-03 3.961473e-02 -1.160859e-01 1.700501e-01 -3.147962e-01 1.240681e-01 -2.937226e-01 -4.947575e-01 3.252666e-01 -7.930604e-02 2.821853e-02 1.274284e-01 -3.824785e-01 7.063385e-02 -1.953518e-02 1.114311e-01 -8.499411e-02 3.197835e-01 -1.182963e-01 1.053131e-01 1.334450e-01 -1.407385e-01 1.947659e-01 -5.863555e-03
<VARIANCE> 39
 9.010178e+00 3.368550e+01 1.562438e+01 1.606035e+01 1.820320e+01 2.040356e+01 2.303906e+01 2.344825e+01 2.335492e+01 2.393746e+01 1.841883e+01 8.980502e+00 8.147057e-03 6.805179e-01 9.519539e-01 7.274867e-01 1.171934e+00 1.100110e+00 9.880264e-01 1.245958e+00 1.824064e+00 1.567959e+00 1.275492e+00 1.111946e+00 1.069276e+00 2.894149e-04 1.209117e-01 1.748452e-01 1.695784e-01 2.447142e-01 1.930046e-01 1.612772e-01 2.096641e-01 2.730666e-01 2.376718e-01 2.157766e-01 1.939399e-01 1.854890e-01 8.794640e-05
<GCONST> 6.577819e+01
<MIXTURE> 4 1.046377e-01
<MEAN> 39
 -1.640246e+00 1.278103e+01 1.872576e+00 -4.602373e+00 -3.683408e+00 -5.827164e+00 -8.163560e+00 -5.051545e-02 2.179184e+00 -4.408091e+00 4.849771e+00 -1.362175e-01 8.347358e-01 -1.516885e-01 1.413394e+00 -6.273801e-01 1.306718e+00 -7.225817e-01 -4.647487e-02 -9.095442e-01 -3.311193e-01 -5.332039e-01 -1.009339e+00 8.944397e-01 -1.201164e+00 3.264487e-03 1.377458e-01 -4.888208e-01 1.149834e-01 -1.758213e-01 -2.369034e-01 3.919303e-01 1.923620e-01 1.823098e-01 -1.602200e-01 3.960562e-01 -4.174551e-01 -9.363336e-02 1.668496e-03
<VARIANCE> 39
 8.754758e+00 2.470708e+01 1.244870e+01 2.465853e+01 1.891099e+01 1.804364e+01 1.862480e+01 2.086039e+01 2.360749e+01 3.117010e+01 2.037708e+01 2.056521e+01 5.923057e-03 2.605657e-01 5.674955e-01 7.411539e-01 1.023422e+00 1.065401e+00 1.543892e+00 1.532928e+00 1.409114e+00 1.661493e+00 1.892413e+00 1.325419e+00 1.318546e+00 1.897021e-04 4.100125e-02 1.389220e-01 1.139689e-01 2.343800e-01 2.431870e-01 2.143396e-01 2.312028e-01 2.521898e-01 2.111437e-01 2.701712e-01 2.890227e-01 2.709487e-01 1.404085e-05
<GCONST> 6.312809e+01
<MIXTURE> 5 1.000168e-01
<MEAN> 39
 1.653678e+00 1.322075e+01 -2.732582e+00 -1.062370e+00 -4.865068e+00 -4.223236e+00 1.116713e+00 1.460499e+00 -2.677009e-01 1.979869e+00 -2.929264e+00 5.048079e+00 7.860516e-01 -8.737705e-01 -4.363438e-01 -8.693609e-01 -4.316719e-01 -8.830894e-01 -1.040033e+00 -1.364804e+00 -1.246073e+00 -1.369518e+00 -1.561081e+00 -1.419205e+00 -7.399207e-01 3.530128e-02 -1.420513e-01 -3.262466e-01 -3.828247e-02 -1.404500e-02 2.700460e-02 -1.092518e-01 -1.701400e-01 -1.894667e-01 -1.170338e-01 -1.217027e-01 -1.083202e-03 -1.853816e-01 -4.339619e-03
<VARIANCE> 39
 1.250702e+01 2.740475e+01 1.501021e+01 1.351164e+01 1.100397e+01 1.399755e+01 1.715011e+01 2.583644e+01 1.998821e+01 2.492902e+01 1.935550e+01 1.981125e+01 7.427769e-03 5.793872e-01 5.709234e-01 7.152921e-01 9.097738e-01 1.111371e+00 1.191740e+00 1.294577e+00 1.241246e+00 1.367548e+00 1.582457e+00 1.926191e+00 2.059187e+00 3.779547e-04 9.597582e-02 1.264711e-01 1.149298e-01 1.294001e-01 1.849972e-01 1.591814e-01 2.235576e-01 2.555961e-01 2.423187e-01 2.476901e-01 3.169905e-01 2.848568e-01 6.758294e-05
<GCONST> 6.487688e+01
<MIXTURE> 6 1.318962e-01
<MEAN> 39
 -1.436251e+00 9.925818e+00 -3.121985e-01 -7.761883e+00 -1.565019e+00 -9.109393e+00 -5.852292e-01 1.665994e+00 6.025513e-01 -3.378496e-01 2.411656e-01 -1.611685e+00 7.957712e-01 -4.664273e-01 2.640189e+00 -1.398276e+00 1.942631e+00 -5.047888e-01 -1.170598e+00 -7.648450e-01 -1.181335e+00 -8.275990e-01 -8.094459e-01 1.401443e-01 4.641102e-01 -8.046908e-03 3.164224e-01 -7.446190e-01 1.101062e-01 5.870715e-01 -6.027454e-01 8.320287e-01 2.558634e-02 -8.191705e-02 -3.249107e-01 -1.075277e-01 -2.183151e-01 -3.384327e-03 3.231466e-03
<VARIANCE> 39
 1.021101e+01 2.505636e+01 2.622435e+01 3.332944e+01 2.127514e+01 2.972402e+01 4.653559e+01 3.497995e+01 3.806065e+01 3.469464e+01 3.673686e+01 3.569695e+01 8.984542e-03 6.919817e-01 1.923870e+00 1.136405e+00 1.946287e+00 3.146005e+00 4.839812e+00 3.356321e+00 2.573776e+00 4.072006e+00 5.594205e+00 4.374434e+00 4.187071e+00 3.639003e-04 1.053517e-01 2.954297e-01 3.745047e-01 6.509139e-01 5.512597e-01 5.204879e-01 5.025762e-01 6.889976e-01 6.708342e-01 6.749992e-01 5.798434e-01 6.532842e-01 3.372454e-05
<GCONST> 9.231528e+01
<MIXTURE> 7 1.596518e-01
<MEAN> 39
 1.293136e-01 1.172143e+01 -1.393351e+00 -1.400368e+00 -6.341047e+00 -6.718065e+00 -7.933135e+00 2.851733e-01 -3.837516e+00 -7.680085e-01 -1.682559e+00 -4.185592e+00 8.101851e-01 2.873573e-02 9.570765e-01 -6.259830e-02 3.642439e-01 -5.647908e-01 3.186731e-02 -4.992135e-01 -1.741142e-01 -5.114884e-01 2.248517e-01 -3.760288e-01 2.313719e-01 2.568922e-03 -3.310734e-02 -1.336312e-01 1.407657e-02 -3.105747e-01 2.648134e-01 1.023902e-01 2.081708e-01 -1.033120e-02 2.123211e-01 -1.264204e-01 7.549014e-02 1.547430e-01 1.841411e-03
<VARIANCE> 39
 1.067196e+01 2.823112e+01 2.897392e+01 2.776296e+01 2.187604e+01 2.711923e+01 3.896999e+01 3.864429e+01 3.555413e+01 3.096542e+01 4.535381e+01 3.770216e+01 5.502179e-03 2.933824e-01 7.656903e-01 1.228832e+00 1.338917e+00 1.298518e+00 2.137823e+00 2.252592e+00 2.075951e+00 1.901785e+00 2.236135e+00 1.671233e+00 1.934613e+00 1.684140e-04 3.988668e-02 1.040065e-01 1.938860e-01 2.359589e-01 2.734705e-01 3.894257e-01 3.606335e-01 3.838912e-01 3.805939e-01 3.816761e-01 2.988926e-01 3.582338e-01 1.276053e-05
<GCONST> 7.430466e+01
<MIXTURE> 8 1.182183e-01
<MEAN> 39
 2.606172e+00 1.403716e+01 -2.307570e+00 -1.563726e+00 -3.690413e+00 -3.090776e+00 7.305993e-01 1.510350e+00 -1.193990e+00 8.766743e-01 -3.149422e+00 1.880221e+00 6.733397e-01 9.826554e-02 6.804143e-01 -1.910751e-01 2.919834e-01 -7.071877e-01 -1.155811e-01 -6.828343e-01 -4.640142e-01 -6.229979e-01 -3.410107e-01 -5.862585e-01 4.747237e-01 1.614439e-02 -2.309444e-01 -3.052965e-01 -9.893782e-02 -2.653535e-01 -7.665137e-02 -4.193590e-01 -2.853582e-01 -2.225076e-01 -1.276234e-01 -2.643889e-01 4.270592e-02 -1.712695e-01 1.075656e-02
<VARIANCE> 39
 1.183967e+01 2.025633e+01 2.052695e+01 2.622274e+01 1.705879e+01 1.387628e+01 3.296830e+01 2.376015e+01 2.975565e+01 3.332088e+01 4.533078e+01 4.829478e+01 9.197151e-03 5.771505e-01 1.036188e+00 8.378226e-01 1.330002e+00 1.360588e+00 1.898360e+00 1.591916e+00 1.450607e+00 2.095913e+00 1.558030e+00 2.838280e+00 2.322314e+00 7.634837e-04 9.104161e-02 2.230353e-01 2.267480e-01 3.437934e-01 3.227461e-01 2.578519e-01 3.489821e-01 2.920133e-01 4.193363e-01 4.795735e-01 5.948040e-01 6.601049e-01 7.544264e-05
<GCONST> 7.949965e+01
<MIXTURE> 9 1.001494e-01
<MEAN> 39
 8.950179e-01 1.227380e+01 -2.442379e+00 -3.139839e+00 -6.626419e+00 -4.693810e+00 -2.608760e+00 2.028609e+00 -1.140237e+00 4.693532e-02 -5.576791e-01 7.018999e-01 7.758391e-01 -8.794112e-01 7.917507e-01 -7.015328e-01 -7.530456e-01 -8.530771e-01 -1.011887e+00 -1.104121e+00 -9.451919e-01 -1.273226e+00 -1.263850e+00 -8.207282e-01 -5.674994e-01 7.581140e-02 -3.599449e-01 -1.057016e+00 3.904527e-01 5.925573e-01 7.688635e-01 7.014929e-01 3.252414e-01 9.211510e-02 3.143829e-01 1.724115e-01 2.286912e-01 1.307267e-01 -4.099374e-02
<VARIANCE> 39
 1.213254e+01 4.949200e+01 1.693646e+01 1.817084e+01 2.076862e+01 3.128205e+01 4.845358e+01 3.016561e+01 2.612905e+01 3.037817e+01 3.405494e+01 4.690169e+01 1.133363e-02 8.191612e-01 2.004046e+00 1.125952e+00 1.519951e+00 1.599799e+00 1.829281e+00 1.981731e+00 3.133192e+00 2.403826e+00 2.111566e+00 4.817227e+00 4.243591e+00 1.246025e-03 1.650577e-01 3.960585e-01 2.909358e-01 2.528899e-01 3.124934e-01 4.243954e-01 5.560758e-01 4.086144e-01 3.470412e-01 3.200162e-01 5.130385e-01 6.320143e-01 3.653618e-04
<GCONST> 8.895017e+01
<STATE> 3
<NUMMIXES> 9
<MIXTURE> 1 9.041662e-02
<MEAN> 39
 -1.372847e+00 1.077621e+01 -4.678244e+00 -2.279232e+00 -5.669293e+00 -5.141142e+00 -2.855957e+00 -2.612213e+00 -1.786479e+00 -1.087747e+00 -2.913598e-01 4.010674e+00 8.667088e-01 1.811348e-02 4.921829e-01 4.016010e-01 8.226811e-01 4.516534e-01 4.581462e-01 1.895570e-01 2.260321e-01 5.307875e-01 3.532123e-01 7.666801e-01 1.009584e+00 1.682298e-02 1.751542e-01 2.758943e-02 1.602108e-01 6.040638e-02 1.423237e-01 2.489822e-02 1.762920e-01 3.599460e-01 3.090498e-01 1.762552e-01 -1.171371e-02 -2.031949e-01 -5.411787e-03
<VARIANCE> 39
 1.575409e+01 3.684064e+01 2.321359e+01 1.825938e+01 2.780858e+01 3.399143e+01 3.129575e+01 3.031392e+01 4.103961e+01 4.620510e+01 6.693761e+01 7.397399e+01 8.293494e-03 4.538265e-01 6.428184e-01 8.372215e-01 9.770407e-01 1.232373e+00 1.414742e+00 1.729570e+00 1.671933e+00 1.693156e+00 2.331351e+00 2.462183e+00 2.392321e+00 1.821714e-04 9.431782e-02 9.731293e-02 1.488230e-01 1.966065e-01 2.491122e-01 2.163633e-01 2.471095e-01 3.123695e-01 3.595281e-01 4.015324e-01 5.602526e-01 5.456368e-01 5.357280e-05
<GCONST> 7.712071e+01
<MIXTURE> 2 8.088640e-02
<MEAN> 39
 5.862470e-01 1.399118e+01 -1.287136e+00 8.029510e-01 -6.939807e+00 -2.114747e+00 -1.228491e+01 1.467033e+00 -1.219814e+00 -5.219743e+00 3.275274e+00 -4.086329e+00 8.725957e-01 1.114932e-01 1.328109e-01 3.488299e-03 3.923294e-02 2.934253e-01 7.890650e-02 2.402340e-01 1.050315e-01 1.194416e-01 1.639239e-01 6.751466e-02 -8.532644e-03 3.905271e-04 -3.272721e-02 -4.509023e-03 1.072629e-01 -7.827145e-02 7.954343e-02 -1.544773e-01 1.976266e-01 -1.011897e-02 8.289458e-02 5.042697e-02 5.785718e-02 1.065536e-01 -7.209058e-04
<VARIANCE> 39
 1.142545e+01 2.384660e+01 8.579416e+00 2.525906e+01 1.285485e+01 2.639619e+01 1.337353e+01 2.635790e+01 4.032441e+01 2.187769e+01 2.281055e+01 2.789241e+01 4.035080e-03 1.439843e-01 2.671409e-01 4.156730e-01 3.627074e-01 5.056206e-01 7.651600e-01 7.461261e-01 9.460763e-01 8.529543e-01 6.234953e-01 4.631449e-01 6.550647e-01 3.754082e-05 2.190427e-02 4.172712e-02 6.368805e-02 6.711818e-02 8.706042e-02 1.328088e-01 1.006887e-01 1.330507e-01 1.527880e-01 1.119907e-01 1.090671e-01 1.184732e-01 3.730629e-06
<GCONST> 4.147692e+01
<MIXTURE> 3 1.355626e-01
<MEAN> 39
 -1.536109e+00 1.989797e+00 -9.096048e-01 -1.067600e+00 -1.367229e+00 -1.101232e+00 -1.488611e+00 -4.882567e-01 -9.822265e-01 -1.383672e+00 -3.809077e-01 -5.110852e-02 9.750566e-01 6.873509e-02 -9.706128e-04 3.117308e-03 4.731091e-02 4.646070e-02 2.456369e-02 1.385465e-02 1.660652e-03 5.755003e-02 -2.227385e-02 3.568750e-02 -3.344198e-02 -5.420981e-04 2.884933e-03 -3.286636e-03 -2.919517e-03 -3.181360e-02 -2.753323e-02 -2.385002e-02 1.634132e-03 9.721752e-03 -1.084647e-02 -1.329922e-02 -1.992733e-02 -1.635953e-02 -9.341331e-04
<VARIANCE> 39
 2.853450e+00 3.637553e+00 4.703555e+00 6.456654e+00 5.458166e+00 6.352944e+00 1.184562e+01 7.076016e+00 6.952789e+00 9.474565e+00 1.277923e+01 7.696910e+00 8.178990e-04 8.199828e-02 1.330874e-01 2.255671e-01 3.022863e-01 2.956076e-01 3.438752e-01 4.382162e-01 3.790942e-01 3.888736e-01 3.717536e-01 3.001405e-01 3.481743e-01 3.754082e-05 1.043446e-02 1.794360e-02 2.841742e-02 3.393209e-02 4.867126e-02 5.142511e-02 6.479199e-02 5.087668e-02 5.252306e-02 6.017094e-02 4.967843e-02 5.230531e-02 3.730629e-06
<GCONST> 9.964218e+00
<MIXTURE> 4 1.723037e-01
<MEAN> 39
 -2.723825e+00 1.746427e+01 5.819420e-01 -2.419470e+00 -4.284317e+00 -4.838491e+00 -9.447704e+00 -5.007038e-01 -7.102258e-01 -5.086845e+00 5.840435e+00 -3.643922e+00 8.679525e-01 -1.258549e-02 2.544011e-02 -2.006294e-02 -9.626989e-02 7.654811e-02 -6.516603e-02 2.038303e-02 -6.509162e-03 2.536076e-02 3.018769e-02 -1.882787e-02 1.076357e-02 7.629651e-04 1.764328e-02 -4.372858e-02 2.155970e-02 -3.746039e-02 2.796026e-03 -1.422378e-02 1.626245e-02 7.600710e-03 1.832981e-02 3.819938e-02 -1.607103e-02 3.496534e-02 -1.115777e-03
<VARIANCE> 39
 8.527468e+00 2.195044e+01 9.080016e+00 8.349346e+00 9.703477e+00 1.361926e+01 1.102960e+01 1.587297e+01 1.648385e+01 1.981637e+01 9.317903e+00 7.842707e+00 5.001377e-03 7.116362e-02 9.914929e-02 1.193958e-01 1.419480e-01 1.631805e-01 1.826749e-01 1.628229e-01 1.978879e-01 2.347200e-01 2.365168e-01 1.575249e-01 1.939509e-01 3.754082e-05 1.249479e-02 2.102117e-02 2.203683e-02 2.903551e-02 3.048317e-02 3.224656e-02 2.902470e-02 3.594177e-02 4.115398e-02 3.909151e-02 2.807143e-02 3.428716e-02 3.730629e-06
<GCONST> 8.253448e+00
<MIXTURE> 5 3.061343e-02
<MEAN> 39
 -2.381961e+00 9.335217e+00 -3.279830e+00 -4.266852e+00 -6.614538e+00 -6.710280e+00 -7.524614e+00 -3.807345e-01 -6.116092e+00 -4.428822e+00 -2.962276e+00 -2.312742e+00 8.816250e-01 -2.403524e-01 -3.138440e-01 -4.354218e-01 -2.883102e-01 -4.201344e-01 -6.311347e-01 -4.299227e-01 -4.890149e-01 -3.671631e-01 -3.946119e-01 -4.828477e-01 -5.564712e-01 1.467604e-03 6.655210e-02 6.805693e-02 1.113924e-01 1.086761e-01 8.963303e-02 1.267383e-01 1.365594e-01 1.433548e-01 2.182656e-01 1.647110e-01 1.227825e-01 1.030417e-01 -1.203248e-03
<VARIANCE> 39
 4.605653e+00 3.675282e+01 1.070488e+01 1.163758e+01 2.512228e+01 2.233115e+01 3.485662e+01 1.827027e+01 2.519674e+01 3.115294e+01 2.194165e+01 3.291647e+01 9.448744e-03 5.232178e-02 9.889583e-02 2.008435e-01 2.138346e-01 3.295921e-01 1.975835e-01 2.557601e-01 3.721867e-01 4.894600e-01 2.245244e-01 2.485555e-01 3.738344e-01 3.754082e-05 1.123300e-02 1.603103e-02 2.449302e-02 3.128158e-02 4.980044e-02 5.685519e-02 6.908319e-02 6.036672e-02 6.164042e-02 6.340218e-02 5.714297e-02 8.191541e-02 3.730629e-06
<GCONST> 2.418563e+01
<MIXTURE> 6 1.925882e-01
<MEAN> 39
 -8.937437e-01 1.411951e+01 -3.657679e-01 -2.287855e+00 -3.397306e+00 -5.842189e+00 -7.096725e+00 1.954704e-01 -3.778592e+00 -1.196641e+00 1.548684e+00 -6.235689e-01 8.702068e-01 -5.970941e-02 2.346978e-01 -3.213757e-02 2.231537e-01 3.250851e-02 1.573041e-02 -8.669347e-02 -2.586112e-02 3.127507e-02 -1.366359e-01 -5.246647e-02 1.774250e-02 8.064646e-03 3.086806e-02 -1.125966e-01 -4.871590e-02 -6.407863e-02 -4.184404e-02 -1.820661e-02 -1.814155e-02 2.272184e-02 7.602390e-02 1.214121e-02 -2.296760e-02 -8.967281e-02 -2.383452e-03
<VARIANCE> 39
 7.305244e+00 3.672682e+01 1.191414e+01 1.215846e+01 1.960549e+01 2.244797e+01 2.197012e+01 2.846510e+01 2.848159e+01 4.202311e+01 4.211959e+01 1.654445e+01 5.298059e-03 1.555164e-01 3.009491e-01 3.520721e-01 4.713176e-01 5.664529e-01 5.384077e-01 6.586540e-01 6.360953e-01 6.632882e-01 6.902942e-01 8.050295e-01 7.415888e-01 9.363470e-05 2.812205e-02 5.157707e-02 7.385851e-02 9.649665e-02 1.153855e-01 9.900923e-02 1.317923e-01 1.435381e-01 1.480258e-01 1.370966e-01 1.406625e-01 1.422469e-01 1.496165e-05
<GCONST> 4.683703e+01
<MIXTURE> 7 8.418661e-02
<MEAN> 39
 -5.133682e-01 1.352558e+01 -3.038433e+00 -1.905178e+00 -3.804232e+00 -7.130908e+00 -4.291110e+00 9.327940e-01 -4.481323e+00 -5.141276e-01 -4.108573e+00 1.817815e+00 8.317834e-01 5.001744e-02 2.648475e-02 -3.892092e-02 -3.354961e-02 5.969477e-02 3.183157e-02 1.909935e-01 -1.160574e-01 1.189654e-01 -1.049119e-01 3.972010e-02 1.000367e-02 1.513384e-05 3.301473e-03 -1.705302e-02 -1.013791e-02 -2.711292e-02 -1.605191e-02 -3.776145e-02 -2.397897e-02 -1.839866e-02 2.639004e-02 5.979127e-03 3.619599e-03 -5.677814e-02 -9.022257e-04
<VARIANCE> 39
 4.018399e+00 1.158922e+01 1.054862e+01 1.259274e+01 1.340949e+01 2.132359e+01 2.862928e+01 2.145776e+01 2.765547e+01 2.824249e+01 1.456739e+01 1.585969e+01 8.869576e-03 3.554047e-02 6.834918e-02 8.091599e-02 1.942313e-01 1.426795e-01 2.218047e-01 1.866729e-01 2.639067e-01 2.126423e-01 2.145989e-01 1.787701e-01 2.073751e-01 3.754082e-05 5.483867e-03 9.856105e-03 1.340931e-02 2.552501e-02 2.428874e-02 4.039362e-02 3.011459e-02 4.098681e-02 4.014764e-02 3.854165e-02 3.289252e-02 4.076273e-02 3.730629e-06
<GCONST> 9.638422e+00
<MIXTURE> 8 1.242239e-01
<MEAN> 39
 -1.923818e+00 1.102163e+01 -4.962378e+00 -2.706534e+00 -7.413313e+00 -7.604941e+00 -4.098355e+00 -3.259399e+00 -5.416819e+00 -2.788657e+00 -5.913491e+00 1.560558e+00 8.659239e-01 -3.466352e-01 -3.570754e-01 -3.375716e-01 8.393118e-02 -3.842184e-01 -5.149101e-01 -8.630686e-01 -1.012636e+00 -7.862634e-01 -8.127012e-01 -6.798301e-01 -2.822068e-01 2.017094e-02 3.005858e-01 9.549212e-02 3.158559e-01 1.803619e-01 3.374757e-01 3.507349e-01 4.151132e-01 4.831932e-01 5.171224e-01 4.368834e-01 4.668246e-01 2.226008e-01 -6.211783e-03
<VARIANCE> 39
 1.212652e+01 3.189031e+01 1.537231e+01 1.732735e+01 1.631583e+01 2.027880e+01 2.562923e+01 2.422703e+01 2.160816e+01 2.225491e+01 2.331246e+01 3.334486e+01 6.780498e-03 4.379050e-01 4.855747e-01 6.442854e-01 8.965718e-01 1.021424e+00 1.038737e+00 1.262248e+00 1.301074e+00 1.138802e+00 1.389325e+00 1.720876e+00 1.768474e+00 1.579910e-04 6.571443e-02 1.029424e-01 9.973498e-02 1.639137e-01 1.658702e-01 1.806380e-01 2.022207e-01 1.981661e-01 2.069554e-01 2.433818e-01 2.635660e-01 3.049290e-01 3.873582e-05
<GCONST> 6.306481e+01
<MIXTURE> 9 8.920887e-02
<MEAN> 39
 -1.987144e+00 1.841473e+01 1.876435e+00 -1.592857e+00 -8.869979e+00 -2.729035e+00 -1.338977e+01 2.308014e+00 -3.155746e-01 -5.070621e+00 5.425632e+00 -5.952457e+00 8.361747e-01 -8.015200e-02 7.134257e-02 -2.820974e-02 -5.012770e-02 1.371100e-01 -1.090305e-01 4.123385e-02 -4.308977e-02 4.003984e-02 -1.010288e-01 6.161584e-02 -2.716522e-01 2.625131e-03 1.729917e-02 -1.160032e-01 -1.091910e-02 -1.266984e-01 1.218644e-01 -2.550110e-02 4.644221e-02 -1.430923e-01 -6.682304e-03 4.562987e-02 -1.865901e-02 1.271098e-01 -1.006354e-03
<VARIANCE> 39
 4.526818e+00 1.908976e+01 8.475806e+00 1.090339e+01 2.282063e+01 2.230879e+01 1.892396e+01 1.871299e+01 1.945340e+01 2.544267e+01 1.069586e+01 8.773115e+00 3.826723e-03 9.451421e-02 1.665861e-01 2.535506e-01 3.898183e-01 3.150931e-01 5.173385e-01 6.206145e-01 6.453153e-01 9.357907e-01 5.953882e-01 7.234290e-01 4.908976e-01 4.537247e-05 1.638658e-02 2.757043e-02 4.397861e-02 6.035750e-02 7.166236e-02 9.361137e-02 1.032760e-01 1.140803e-01 1.863084e-01 1.165180e-01 1.045341e-01 6.608103e-02 4.410371e-06
<GCONST> 3.291376e+01
<STATE> 4
<NUMMIXES> 9
<MIXTURE> 1 1.242924e-01
<MEAN> 39
 -1.639281e+00 9.255808e+00 -6.396397e+00 -3.038351e+00 -8.776836e+00 -8.153909e+00 -5.111863e+00 -4.914793e+00 -5.151635e+00 -4.023374e+00 -6.189729e+00 4.667850e-01 8.998377e-01 1.982537e-01 2.619217e-01 2.409760e-01 2.996539e-01 3.725234e-01 4.327774e-01 3.695106e-01 3.449253e-01 3.677786e-01 2.840766e-01 3.226111e-01 1.445958e-01 4.333254e-04 1.613388e-01 2.462329e-01 3.543996e-01 2.998129e-01 4.623711e-01 3.792133e-01 4.629806e-01 4.396932e-01 3.892209e-01 3.743557e-01 3.127775e-01 2.202512e-01 -1.576378e-03
<VARIANCE> 39
 1.374109e+01 4.149448e+01 1.228720e+01 1.312100e+01 1.705251e+01 2.200849e+01 1.433364e+01 2.198240e+01 2.027013e+01 2.228027e+01 2.623673e+01 3.644759e+01 5.941291e-03 1.168163e-01 1.975905e-01 2.722032e-01 3.939818e-01 4.990168e-01 5.115902e-01 5.806718e-01 6.035984e-01 5.404464e-01 5.330760e-01 5.706809e-01 5.114685e-01 4.249348e-05 1.949183e-02 4.850740e-02 5.908798e-02 7.310810e-02 8.376708e-02 9.041879e-02 9.867891e-02 1.107146e-01 1.232695e-01 1.139231e-01 1.479577e-01 1.324853e-01 5.405211e-06
<GCONST> 3.954551e+01
<MIXTURE> 2 1.325843e-01
<MEAN> 39
 -9.538510e-01 9.892241e+00 -2.574221e+00 4.202049e-01 -4.051958e+00 -3.118113e+00 -1.445294e+00 -1.433745e+00 -1.732862e+00 -3.270915e-01 -2.081963e-01 6.060263e+00 9.156594e-01 1.094693e-01 -5.126244e-03 7.298597e-02 1.152736e-01 7.285930e-02 -2.178028e-02 1.089443e-01 -4.300421e-02 2.044860e-01 1.433543e-01 1.369521e-01 -2.437501e-02 -1.074005e-03 -1.601400e-02 -3.923933e-02 -2.877261e-02 -9.125747e-02 5.357336e-03 -9.688932e-02 -3.285502e-02 3.300143e-02 2.386705e-02 2.102086e-02 -4.853503e-02 -1.094864e-01 -1.573183e-03
<VARIANCE> 39
 1.739404e+01 3.147508e+01 1.107978e+01 1.214273e+01 1.366772e+01 1.489367e+01 1.362397e+01 1.492936e+01 1.425603e+01 2.082679e+01 3.366529e+01 6.450320e+01 3.250292e-03 1.792928e-01 1.721017e-01 2.199116e-01 3.835132e-01 4.580078e-01 5.152978e-01 4.309934e-01 4.485511e-01 4.337967e-01 4.547462e-01 4.938618e-01 6.321603e-01 4.958780e-05 2.965870e-02 2.965655e-02 4.695090e-02 6.304513e-02 9.293558e-02 8.665588e-02 9.428948e-02 7.652129e-02 9.190895e-02 1.031289e-01 1.129212e-01 1.129975e-01 3.730629e-06
<GCONST> 3.529447e+01
<MIXTURE> 3 1.069736e-01
<MEAN> 39
 -8.355104e-01 9.977062e+00 -4.208202e+00 -5.687873e-01 -5.729403e+00 -5.226832e+00 -2.455433e+00 -2.441102e+00 -2.746052e+00 -1.916400e+00 -4.190488e+00 1.575088e+00 9.075749e-01 4.362259e-01 6.403841e-01 7.586704e-01 8.249124e-01 1.006033e+00 9.119286e-01 1.059277e+00 9.429225e-01 8.431086e-01 7.835591e-01 7.422848e-01 5.114029e-01 -2.157473e-04 1.034705e-02 -2.262193e-02 2.043160e-02 -7.038725e-02 4.820585e-02 -2.514409e-02 4.008798e-02 -1.843183e-02 -1.542988e-03 7.237564e-02 3.598822e-02 -2.135612e-02 -1.283378e-03
<VARIANCE> 39
 1.288582e+01 4.449933e+01 1.217584e+01 1.214966e+01 1.671231e+01 2.059300e+01 1.416474e+01 1.966577e+01 1.822401e+01 1.879461e+01 2.384189e+01 3.353296e+01 5.748088e-03 1.242930e-01 2.298769e-01 3.043310e-01 3.555107e-01 4.545527e-01 4.948915e-01 5.401042e-01 5.879661e-01 5.573166e-01 5.859252e-01 5.681871e-01 7.391918e-01 4.051696e-05 2.117173e-02 4.193491e-02 5.124564e-02 6.986335e-02 8.902005e-02 9.533496e-02 1.074131e-01 9.516160e-02 9.999651e-02 1.004314e-01 1.340014e-01 1.078179e-01 4.407455e-06
<GCONST> 3.815720e+01
<MIXTURE> 4 6.780773e-02
<MEAN> 39
 -1.683074e-01 1.280535e+01 -4.163095e+00 -3.692968e-01 -5.186422e+00 -5.270481e+00 -2.191599e+00 -3.735244e-01 7.188083e-01 7.462431e-01 2.544823e+00 5.700106e+00 8.882361e-01 1.333260e-02 2.524769e-01 1.117631e-01 3.453070e-01 3.350341e-02 -3.885083e-02 2.501027e-01 1.230362e-01 6.503873e-01 5.573853e-01 3.036150e-01 2.926519e-02 8.763080e-03 -1.470141e-02 -1.364842e-01 -9.543714e-02 -2.473510e-01 -7.849935e-02 -8.447998e-02 -3.382400e-02 -1.555780e-01 -1.417203e-01 -1.163645e-01 -2.355262e-01 -3.288205e-01 -4.136811e-03
<VARIANCE> 39
 1.632810e+01 3.357325e+01 2.476463e+01 2.396166e+01 2.196033e+01 3.022419e+01 2.580182e+01 3.121011e+01 3.933698e+01 5.327412e+01 6.159475e+01 8.396722e+01 6.596553e-03 4.161223e-01 7.683147e-01 1.001848e+00 1.165369e+00 1.582222e+00 1.479011e+00 1.611842e+00 1.671182e+00 1.660767e+00 1.637343e+00 2.241526e+00 1.873537e+00 1.547962e-04 7.461338e-02 1.125477e-01 1.705171e-01 1.858140e-01 2.538347e-01 2.757493e-01 2.598474e-01 3.052720e-01 2.850480e-01 3.729366e-01 3.754180e-01 3.458837e-01 1.919328e-05
<GCONST> 7.468474e+01
<MIXTURE> 5 1.030817e-01
<MEAN> 39
 -4.315023e-01 1.065524e+01 -2.893486e+00 5.274364e-01 -4.123156e+00 -4.026667e+00 -7.772802e-01 -6.682416e-01 -1.209682e+00 -2.704466e-01 -3.169606e+00 3.113099e+00 9.116248e-01 -2.777495e-01 -6.029302e-01 -7.452862e-01 -7.464625e-01 -8.050516e-01 -8.817555e-01 -6.984606e-01 -8.811844e-01 -6.156952e-01 -6.368961e-01 -6.079138e-01 -6.033065e-01 8.275015e-04 -1.039276e-01 -1.732825e-01 -1.933766e-01 -2.664424e-01 -2.073225e-01 -2.402093e-01 -2.293458e-01 -2.279059e-01 -1.982470e-01 -2.269579e-01 -1.370187e-01 -2.005322e-01 -1.278551e-03
<VARIANCE> 39
 1.168650e+01 4.855731e+01 9.808920e+00 1.138424e+01 1.527913e+01 2.388983e+01 1.139075e+01 1.606419e+01 1.618046e+01 1.822238e+01 2.527897e+01 2.947343e+01 5.321671e-03 1.320737e-01 1.906680e-01 2.411897e-01 3.441622e-01 4.017178e-01 4.742949e-01 5.404561e-01 5.489959e-01 5.950300e-01 5.653300e-01 7.594293e-01 6.176133e-01 4.997565e-05 2.140918e-02 4.445082e-02 5.194673e-02 6.955774e-02 7.562429e-02 1.005949e-01 9.524828e-02 1.003811e-01 9.130491e-02 9.520213e-02 1.068339e-01 9.290221e-02 3.730629e-06
<GCONST> 3.614724e+01
<MIXTURE> 6 1.051738e-01
<MEAN> 39
 -1.563574e+00 8.695955e+00 -5.499290e+00 -2.183793e+00 -7.483305e+00 -7.747959e+00 -4.705826e+00 -4.316212e+00 -4.033851e+00 -3.673320e+00 -5.979134e+00 1.159200e+00 9.065704e-01 -2.406916e-01 -4.265897e-01 -6.087878e-01 -6.401602e-01 -6.930855e-01 -6.997750e-01 -6.885151e-01 -6.780696e-01 -5.454975e-01 -6.119135e-01 -4.174562e-01 -5.500730e-01 7.658851e-04 1.089903e-01 2.066485e-01 2.447069e-01 1.914830e-01 3.303618e-01 3.178686e-01 3.402708e-01 3.681645e-01 2.616279e-01 2.308882e-01 2.130145e-01 1.544506e-01 -1.686747e-03
<VARIANCE> 39
 1.249532e+01 4.540754e+01 1.204027e+01 1.109563e+01 1.792042e+01 2.691874e+01 1.704721e+01 2.032382e+01 1.662366e+01 2.178694e+01 2.704396e+01 2.805163e+01 6.061821e-03 1.222165e-01 1.955815e-01 2.494561e-01 3.701293e-01 4.731210e-01 4.915256e-01 5.618051e-01 5.310351e-01 4.916395e-01 4.906099e-01 9.491671e-01 5.626031e-01 4.778738e-05 1.933635e-02 3.543711e-02 5.661924e-02 6.811683e-02 8.922014e-02 8.236639e-02 9.539875e-02 1.090592e-01 9.912138e-02 8.929795e-02 1.205995e-01 6.831685e-02 4.288721e-06
<GCONST> 3.736694e+01
<MIXTURE> 7 1.087911e-01
<MEAN> 39
 3.252219e-01 1.223471e+01 -2.581759e+00 1.037326e+00 -4.134959e+00 -3.482377e+00 -5.235856e-01 -7.993597e-03 -1.265754e+00 -2.435406e-01 -3.225982e+00 2.266639e+00 8.914611e-01 1.966813e-01 2.700388e-01 2.629723e-01 2.966100e-01 3.613644e-01 3.130579e-01 4.659229e-01 2.675023e-01 4.196110e-01 4.255687e-01 3.057033e-01 1.940747e-01 6.756716e-04 -1.619212e-01 -3.149899e-01 -3.377020e-01 -4.111111e-01 -3.798473e-01 -4.401485e-01 -3.707020e-01 -4.434725e-01 -3.355789e-01 -2.993912e-01 -2.872864e-01 -2.829585e-01 -9.969353e-04
<VARIANCE> 39
 1.091584e+01 4.543512e+01 1.063272e+01 1.126948e+01 1.830611e+01 2.120915e+01 1.314664e+01 2.229301e+01 1.956033e+01 1.806203e+01 2.108403e+01 2.466615e+01 8.206259e-03 1.207501e-01 2.994506e-01 3.487304e-01 4.496560e-01 5.904447e-01 6.293995e-01 6.468467e-01 7.080484e-01 5.867175e-01 6.680866e-01 7.667627e-01 7.230498e-01 4.540055e-05 2.307514e-02 5.017478e-02 6.874554e-02 7.539066e-02 9.341031e-02 1.110102e-01 1.258783e-01 9.624299e-02 1.180765e-01 1.212148e-01 1.003547e-01 1.152502e-01 3.792989e-06
<GCONST> 4.096601e+01
<MIXTURE> 8 1.441210e-01
<MEAN> 39
 9.839468e-03 1.358308e+01 -5.458306e+00 -8.299826e-02 -6.393013e+00 -8.880365e+00 -3.397225e+00 -3.548668e+00 -3.478049e+00 -2.008390e+00 -7.302486e+00 2.149022e+00 8.786807e-01 -1.863515e-02 -2.984316e-02 -1.380655e-01 -1.698814e-02 -9.376833e-02 -1.673031e-01 -4.404989e-02 -9.829964e-02 4.166330e-02 -1.427588e-02 -1.396536e-01 -1.805141e-01 -6.344348e-04 -4.451720e-02 -5.876452e-02 -1.579593e-02 -1.248283e-01 -1.925760e-02 -5.517249e-02 6.717261e-03 -4.723923e-02 -2.267679e-02 -6.474739e-02 4.889383e-02 -5.085732e-02 -1.358409e-03
<VARIANCE> 39
 1.424549e+01 1.839305e+01 1.195261e+01 1.589824e+01 1.625381e+01 1.794561e+01 1.771387e+01 2.984285e+01 2.045276e+01 2.179651e+01 1.635561e+01 3.089769e+01 5.844633e-03 7.500597e-02 1.649906e-01 2.475578e-01 3.449638e-01 3.625221e-01 4.453818e-01 4.534004e-01 4.737822e-01 4.682057e-01 4.217232e-01 4.330518e-01 4.539745e-01 3.754082e-05 1.445820e-02 2.442714e-02 4.421847e-02 5.520211e-02 6.791867e-02 7.378744e-02 9.766896e-02 8.264060e-02 8.773549e-02 7.207257e-02 8.415652e-02 8.755848e-02 3.730629e-06
<GCONST> 3.141640e+01
<MIXTURE> 9 1.071664e-01
<MEAN> 39
 -2.013573e+00 1.633468e+01 4.802224e-01 -3.121219e+00 -5.518642e+00 -4.490647e+00 -1.000955e+01 2.967801e-01 -3.234403e-01 -4.444983e+00 4.659341e+00 -5.319076e+00 8.810508e-01 -1.643137e-02 -2.028971e-01 1.934714e-01 -3.245057e-01 2.685182e-01 -2.982332e-01 8.672466e-02 -1.012596e-01 4.838335e-01 1.091393e-01 8.111771e-02 5.109854e-02 9.072006e-04 1.688245e-02 -1.557128e-01 6.309152e-02 -1.396997e-01 2.079610e-01 -9.285046e-02 7.607664e-02 -3.931578e-02 4.379659e-02 7.149500e-02 -1.394612e-01 1.237542e-01 -2.754143e-03
<VARIANCE> 39
 7.804025e+00 2.394595e+01 1.678010e+01 1.811282e+01 1.585501e+01 2.077674e+01 2.442035e+01 2.165063e+01 2.444481e+01 2.665893e+01 2.012267e+01 1.713622e+01 4.163047e-03 2.598351e-01 3.208801e-01 5.018947e-01 7.557043e-01 6.144518e-01 6.578425e-01 9.241503e-01 9.131003e-01 1.008405e+00 8.354824e-01 6.488882e-01 6.516140e-01 7.421939e-05 5.411388e-02 7.476892e-02 1.157497e-01 1.360411e-01 1.123053e-01 1.642051e-01 1.422371e-01 1.550978e-01 1.563256e-01 1.305824e-01 1.089507e-01 1.127987e-01 8.607906e-06
<GCONST> 4.904151e+01
<STATE> 5
<NUMMIXES> 9
<MIXTURE> 1 8.704697e-02
<MEAN> 39
 -3.201627e+00 1.177864e+01 -5.064813e+00 -3.533971e+00 -6.864990e+00 -4.346624e+00 3.829883e+00 4.520920e+00 1.525281e+01 1.676724e+01 1.253790e+01 8.042694e+00 9.315420e-01 2.487879e-01 2.368727e-01 2.005778e-01 9.307662e-02 2.065652e-01 1.381349e-02 1.047129e-01 2.222624e-01 -3.010984e-02 -1.206458e-01 -1.062432e-01 -5.240683e-01 7.242197e-04 -4.669055e-02 -4.982617e-02 -2.092981e-02 -6.765573e-02 3.472778e-02 -6.722587e-02 7.691165e-04 -8.113686e-02 -8.567608e-02 -1.199073e-02 2.253584e-02 2.446391e-02 -2.156981e-03
<VARIANCE> 39
 1.680194e+01 2.943111e+01 3.372532e+01 1.712255e+01 1.035441e+01 9.634610e+00 1.716153e+01 3.023023e+01 3.141392e+01 9.287053e+00 2.506528e+01 6.420507e+01 4.568713e-03 4.299765e-01 5.316948e-01 7.813723e-01 7.385331e-01 6.828734e-01 6.103798e-01 4.319676e-01 7.867960e-01 8.321549e-01 6.415130e-01 6.120360e-01 9.552643e-01 4.051018e-05 7.804243e-02 1.069040e-01 1.332991e-01 1.530777e-01 1.103520e-01 1.156398e-01 7.952349e-02 1.146816e-01 1.668978e-01 1.670460e-01 1.056809e-01 1.472731e-01 4.094093e-06
<GCONST> 4.962085e+01
<MIXTURE> 2 9.187135e-02
<MEAN> 39
 8.521475e-01 1.163089e+01 -6.961518e+00 -2.230104e+00 -9.571348e+00 -8.848827e+00 -3.060673e+00 -5.293012e+00 -2.832199e+00 -7.365288e+00 -7.857698e+00 -1.201810e+00 8.284641e-01 5.557601e-01 2.060186e-01 1.501307e-01 2.915781e-01 6.146067e-01 5.974911e-01 3.245443e-01 2.914104e-01 4.025309e-01 5.531331e-01 7.761511e-01 4.744831e-01 -6.435242e-03 2.091351e-01 6.116055e-02 2.075039e-01 2.037381e-01 3.953997e-01 2.961636e-01 1.402436e-01 3.038251e-01 2.585660e-01 3.357071e-01 3.315377e-01 2.459166e-01 -1.308524e-03
<VARIANCE> 39
 1.486479e+01 3.532907e+01 2.659819e+01 1.347815e+01 1.586136e+01 2.086224e+01 2.407338e+01 2.207886e+01 1.973155e+01 2.354774e+01 3.508801e+01 2.157685e+01 9.331147e-03 5.242238e-01 3.138337e-01 1.246972e+00 1.067963e+00 1.387195e+00 1.411596e+00 1.102314e+00 1.343110e+00 1.519760e+00 1.878642e+00 2.301271e+00 1.664752e+00 7.176081e-05 7.716943e-02 5.488436e-02 1.250873e-01 1.175548e-01 1.604645e-01 1.841279e-01 1.926339e-01 2.823545e-01 2.063751e-01 3.861929e-01 3.715893e-01 2.159135e-01 6.965621e-06
<GCONST> 6.334882e+01
<MIXTURE> 3 1.636679e-01
<MEAN> 39
 -1.476443e+00 1.451618e+01 1.190890e+00 -1.753088e+00 -4.268392e+00 -3.872878e+00 -8.213396e+00 6.695731e-01 -1.085911e+00 -3.588795e+00 3.591927e+00 -2.794104e+00 8.494499e-01 2.651386e-01 -2.358042e-01 2.950793e-01 -3.597404e-02 4.195557e-01 -1.303533e-01 2.728622e-01 -4.536777e-02 2.751711e-01 2.743547e-01 -1.494358e-01 -2.397821e-02 -1.516880e-02 2.143198e-01 -1.964835e-01 3.577153e-02 8.582128e-02 1.730204e-01 1.155055e-01 2.473225e-01 -3.656352e-02 -2.871690e-02 1.324947e-01 -1.834637e-01 2.668553e-03 -5.819133e-03
<VARIANCE> 39
 1.013212e+01 3.276820e+01 9.597190e+00 1.609730e+01 1.191586e+01 2.244531e+01 3.194119e+01 1.399800e+01 2.488042e+01 2.319287e+01 1.934455e+01 2.032349e+01 5.527669e-03 3.549621e-01 4.142935e-01 5.306671e-01 7.107017e-01 5.420009e-01 6.997730e-01 1.204409e+00 7.918077e-01 1.614107e+00 1.132969e+00 7.356356e-01 9.579102e-01 8.625749e-05 5.477902e-02 6.917336e-02 1.320392e-01 1.184833e-01 1.308874e-01 1.550579e-01 3.153950e-01 1.632317e-01 2.162040e-01 2.197290e-01 1.378054e-01 2.029653e-01 1.974442e-05
<GCONST> 5.428154e+01
<MIXTURE> 4 1.036124e-01
<MEAN> 39
 -3.045760e+00 1.576639e+01 1.651079e-01 -4.779177e+00 -3.718641e+00 -6.484703e+00 -1.000519e+01 -3.690968e+00 2.520870e+00 -6.115222e+00 6.621393e+00 -4.193270e+00 9.043494e-01 -2.160785e-01 -6.421331e-01 3.577876e-01 -1.372427e+00 6.807384e-01 -3.837896e-01 4.729220e-01 2.243514e-01 1.868926e-01 6.161667e-01 -6.282659e-01 7.573749e-01 2.082372e-03 1.220608e-01 -3.502787e-01 3.215678e-01 -2.785963e-01 -1.296399e-02 2.154303e-01 1.378348e-01 4.202092e-01 -8.775298e-02 1.826645e-01 -3.504586e-01 1.959525e-01 -3.425064e-03
<VARIANCE> 39
 8.102650e+00 2.119014e+01 1.534666e+01 1.415707e+01 1.608769e+01 1.363009e+01 2.624117e+01 2.113898e+01 2.439649e+01 2.248588e+01 1.767075e+01 1.341156e+01 4.197940e-03 1.875939e-01 3.652189e-01 4.876345e-01 6.418445e-01 6.227770e-01 8.233658e-01 8.018175e-01 1.037311e+00 7.361937e-01 8.431646e-01 8.760964e-01 5.102927e-01 6.559608e-05 2.884505e-02 8.932649e-02 1.215248e-01 1.601962e-01 9.368116e-02 9.322055e-02 1.594286e-01 1.223027e-01 1.489504e-01 1.363333e-01 1.011278e-01 1.273555e-01 1.648740e-05
<GCONST> 4.676646e+01
<MIXTURE> 5 1.064783e-01
<MEAN> 39
 -1.052443e+00 1.349311e+01 -6.239273e+00 -2.204556e+00 -6.983501e+00 -8.954235e+00 -4.648602e+00 -2.250588e+00 -4.574963e+00 -7.620533e-01 -5.097850e+00 1.132617e+00 8.994006e-01 -2.540980e-01 -2.933615e-01 2.554584e-01 -9.709833e-01 9.424323e-01 -5.453401e-01 1.011388e+00 -1.051805e-03 8.957285e-01 -3.946484e-01 8.108665e-01 -8.040910e-01 -3.893182e-03 1.528059e-01 -1.588703e-01 4.994022e-01 -2.644319e-01 5.367674e-01 6.216635e-02 2.705145e-01 2.484065e-01 8.001344e-02 4.836344e-02 2.370923e-01 -1.059939e-01 -4.603610e-03
<VARIANCE> 39
 9.269073e+00 2.740513e+01 1.048967e+01 2.190075e+01 1.475643e+01 1.743845e+01 2.025303e+01 3.068415e+01 2.326183e+01 2.462172e+01 2.327840e+01 3.853139e+01 3.844713e-03 2.848956e-01 4.047016e-01 4.937623e-01 6.574699e-01 9.767697e-01 1.123908e+00 1.270031e+00 9.859691e-01 1.119405e+00 9.406415e-01 1.032540e+00 9.204298e-01 6.493243e-05 5.977058e-02 9.522501e-02 1.680682e-01 2.213784e-01 1.779254e-01 2.769670e-01 3.017831e-01 2.906013e-01 3.036742e-01 2.679573e-01 2.117575e-01 2.133624e-01 1.693157e-05
<GCONST> 5.911754e+01
<MIXTURE> 6 1.272735e-01
<MEAN> 39
 3.321167e+00 1.225655e+01 -2.782265e+00 2.268399e+00 -1.904317e+00 -4.250663e+00 -3.138864e+00 4.302419e-01 4.070995e-01 2.184773e+00 -1.386277e+00 -6.999459e-01 8.409379e-01 5.663388e-01 -2.328211e-01 -3.171998e-01 3.016958e-01 7.476296e-01 -5.878559e-02 -9.088970e-02 3.799205e-03 3.754498e-01 3.990194e-01 -4.187408e-01 -1.807285e-01 -4.856162e-03 -5.561604e-02 -1.047872e-01 -2.769657e-02 -1.974603e-01 -6.602097e-02 -8.930956e-02 -1.139859e-01 -1.308670e-01 -1.721886e-01 -3.047352e-01 -4.654790e-02 -1.209133e-02 -6.619826e-04
<VARIANCE> 39
 8.990246e+00 2.221011e+01 1.778437e+01 1.222950e+01 2.512890e+01 3.041309e+01 2.889518e+01 1.559031e+01 1.757724e+01 5.106516e+01 3.604850e+01 1.997374e+01 4.583494e-03 4.320307e-01 7.230234e-01 1.289986e+00 1.034623e+00 1.175115e+00 1.678446e+00 1.408674e+00 1.772876e+00 1.626146e+00 2.161839e+00 1.737402e+00 1.310906e+00 7.955809e-05 4.531259e-02 1.302609e-01 2.458534e-01 1.681395e-01 1.958799e-01 3.176952e-01 2.819876e-01 3.146656e-01 2.011536e-01 3.179444e-01 2.593437e-01 2.323908e-01 6.761496e-06
<GCONST> 6.547965e+01
<MIXTURE> 7 1.337979e-01
<MEAN> 39
 -2.146042e+00 1.047272e+01 -7.789085e+00 -2.240728e+00 -7.034670e+00 -6.410547e+00 -6.467452e-01 -1.558892e+00 4.248615e+00 7.843404e+00 1.293528e+01 1.663158e+01 9.348203e-01 -2.218115e-01 -2.683007e-01 7.868372e-02 -4.527286e-01 1.338119e-01 -4.357370e-01 -7.988429e-02 6.370893e-02 1.137829e-01 6.318927e-01 1.927755e-01 2.297945e-01 2.147768e-03 7.283359e-02 -1.324950e-01 1.378228e-01 -1.947077e-01 8.733070e-02 -1.087304e-01 -8.943069e-02 -4.150548e-03 -1.463351e-01 -2.212423e-01 -4.510260e-01 -3.767011e-01 -4.146099e-03
<VARIANCE> 39
 2.574504e+01 2.447496e+01 2.116851e+01 1.858924e+01 4.473140e+01 3.141638e+01 1.954482e+01 2.156691e+01 3.938013e+01 4.428230e+01 5.016413e+01 5.575457e+01 3.222123e-03 5.971618e-01 8.435359e-01 9.587133e-01 1.155702e+00 2.151485e+00 1.536568e+00 1.449018e+00 1.333859e+00 1.296521e+00 1.605670e+00 1.955507e+00 2.025908e+00 1.056492e-04 9.557659e-02 1.844851e-01 2.007695e-01 2.590257e-01 3.500763e-01 2.995334e-01 3.556902e-01 2.827590e-01 2.237626e-01 3.911931e-01 3.282752e-01 4.534320e-01 1.640466e-05
<GCONST> 7.437357e+01
<MIXTURE> 8 9.393623e-02
<MEAN> 39
 -1.442809e+00 1.368939e+01 -4.776842e+00 -1.661726e+00 -6.987545e+00 -7.946252e+00 -4.013627e+00 -2.483533e+00 -3.014256e+00 -1.013501e+00 -5.127960e+00 2.732293e-01 8.907843e-01 -7.297593e-01 -9.035402e-01 -5.570548e-01 -1.567579e+00 -1.893792e-01 -1.239733e+00 -2.649806e-01 -8.020692e-01 -1.699577e-01 -9.839633e-01 -9.631926e-02 -1.163548e+00 -2.758185e-03 3.998328e-02 -2.776363e-01 2.068534e-01 -2.968659e-01 3.218050e-01 1.309332e-02 1.487373e-01 9.074475e-02 9.005225e-02 -6.769361e-02 2.044109e-01 -9.620775e-02 -3.628357e-03
<VARIANCE> 39
 1.150176e+01 2.839333e+01 1.774744e+01 2.564241e+01 1.406343e+01 3.401070e+01 2.107853e+01 3.523724e+01 2.559705e+01 1.644649e+01 3.072521e+01 5.054067e+01 4.052088e-03 2.883656e-01 4.067711e-01 7.000552e-01 8.282626e-01 8.914632e-01 1.271188e+00 1.167477e+00 1.321254e+00 1.218090e+00 1.231673e+00 1.867896e+00 1.510487e+00 1.103672e-04 6.689978e-02 1.301579e-01 1.560811e-01 2.177366e-01 2.390108e-01 2.602933e-01 3.703785e-01 3.381749e-01 2.920122e-01 2.689094e-01 3.193307e-01 2.727550e-01 1.459656e-05
<GCONST> 6.535072e+01
<MIXTURE> 9 9.231417e-02
<MEAN> 39
 5.751241e+00 1.616926e+01 -7.276588e+00 1.871359e+00 -6.014650e+00 -4.827187e+00 -3.231361e+00 -3.813182e+00 1.769369e+00 -3.876198e+00 -6.768565e+00 -1.028342e+00 8.083893e-01 2.011713e-01 -2.551605e-01 6.909118e-02 -3.534517e-01 -7.405625e-02 -1.842360e-01 -5.337080e-01 -2.900667e-01 -1.794719e-01 -1.824645e-01 6.270826e-02 6.338131e-02 -2.918796e-03 -8.244587e-02 -2.142550e-01 1.585226e-01 -2.244243e-01 -1.216335e-01 -2.754097e-01 -1.318282e-01 -7.587108e-02 -3.013720e-01 -1.380556e-01 1.279974e-01 6.017584e-02 -1.948390e-03
<VARIANCE> 39
 8.293933e+00 1.273325e+01 3.025788e+01 1.181734e+01 1.270095e+01 1.885705e+01 2.829917e+01 4.239875e+01 2.811061e+01 2.626406e+01 2.216454e+01 3.532616e+01 8.420013e-03 3.816895e-01 4.674630e-01 1.240907e+00 1.127064e+00 1.182555e+00 1.956466e+00 1.114876e+00 1.668257e+00 1.587657e+00 1.453450e+00 1.357690e+00 1.436046e+00 6.865997e-05 4.818306e-02 5.146313e-02 2.182183e-01 2.105760e-01 2.005941e-01 2.471686e-01 3.173233e-01 2.560614e-01 2.884369e-01 2.115133e-01 2.001163e-01 3.228140e-01 6.353400e-06
<GCONST> 6.316694e+01
<STATE> 6
<NUMMIXES> 9
<MIXTURE> 1 6.345912e-02
<MEAN> 39
 -2.603250e+00 1.537919e+01 -6.492649e+00 -6.697470e+00 -5.871675e+00 -1.019480e+01 -3.656023e-01 -2.046531e+00 -2.927933e+00 -3.004568e+00 -3.197851e+00 3.138064e-01 8.541909e-01 2.671643e-01 -9.261591e-01 9.789641e-01 -2.150844e+00 2.040054e+00 4.152474e-01 2.071885e+00 2.329882e+00 1.408693e+00 9.929084e-01 1.431223e+00 -9.223288e-01 -2.023886e-02 3.841764e-01 -3.516347e-01 5.191142e-01 2.826982e-01 4.579016e-01 9.140707e-01 1.548953e-01 6.496587e-01 2.976804e-01 3.682270e-01 1.118955e-01 7.729937e-02 -9.702090e-03
<VARIANCE> 39
 8.487647e+00 2.678914e+01 7.727217e+00 2.127498e+01 2.033442e+01 2.712840e+01 2.913849e+01 4.177881e+01 2.748692e+01 1.838471e+01 2.279740e+01 3.431810e+01 5.193949e-03 1.002566e+00 1.531662e+00 2.525589e+00 2.204207e+00 1.233471e+00 1.912158e+00 3.105904e+00 2.651331e+00 3.962195e+00 2.560676e+00 2.311518e+00 2.341786e+00 1.428650e-04 1.325798e-01 2.276331e-01 1.602900e-01 4.053598e-01 3.556871e-01 4.230146e-01 5.239196e-01 5.094780e-01 4.916686e-01 5.697492e-01 3.437051e-01 4.464270e-01 7.420500e-05
<GCONST> 8.141039e+01
<MIXTURE> 2 8.448734e-02
<MEAN> 39
 -3.165062e+00 1.057261e+01 -6.228288e+00 -4.649723e+00 -6.008865e+00 -7.763461e+00 1.742464e-01 -5.562091e-01 6.116036e+00 9.569673e+00 1.033293e+01 1.387731e+01 9.097934e-01 4.799501e-01 -6.534795e-01 7.556156e-01 -7.270477e-01 9.476271e-01 -4.170267e-01 -1.357244e-01 9.336814e-02 -7.858127e-01 -6.936517e-01 -1.874890e+00 -1.994813e+00 -2.402684e-02 4.821063e-01 -8.925166e-02 4.500925e-01 4.261843e-01 2.992450e-01 4.365641e-01 1.281236e-02 6.116492e-02 -3.831531e-01 -6.597483e-01 -6.160475e-01 -9.076525e-01 -1.459843e-02
<VARIANCE> 39
 1.655954e+01 2.279293e+01 2.359074e+01 1.589836e+01 2.665105e+01 2.514067e+01 2.606075e+01 3.637201e+01 6.867002e+01 6.088842e+01 3.127501e+01 7.580936e+01 4.441728e-03 1.299309e+00 9.488820e-01 1.790962e+00 1.831667e+00 2.213265e+00 1.397956e+00 1.919509e+00 2.052510e+00 1.384099e+00 3.810981e+00 3.572788e+00 3.795068e+00 2.744462e-04 1.607352e-01 2.018946e-01 3.843310e-01 2.393397e-01 4.027488e-01 3.623959e-01 4.072278e-01 3.872350e-01 3.582329e-01 4.378581e-01 3.550340e-01 5.459248e-01 8.357384e-05
<GCONST> 8.509039e+01
<MIXTURE> 3 1.479858e-01
<MEAN> 39
 -2.464768e+00 1.402690e+01 2.403036e+00 -5.201758e+00 -4.758428e+00 -5.248838e+00 -1.007793e+01 -1.647948e+00 2.457632e-01 -5.624619e+00 4.721753e+00 -5.161977e+00 8.532035e-01 7.650795e-01 -7.793268e-01 8.564297e-01 -1.055770e-01 1.008401e+00 8.787007e-01 1.127755e+00 1.202178e-01 3.827542e-01 2.409778e-01 -7.290390e-01 4.283949e-01 -2.728507e-02 2.249455e-01 -8.110960e-02 9.272117e-02 5.831342e-01 3.207197e-01 5.132435e-01 4.262245e-01 1.376403e-01 -1.541349e-01 1.316380e-01 -2.570976e-01 1.289753e-01 -1.238072e-02
<VARIANCE> 39
 7.409322e+00 2.098878e+01 1.471561e+01 2.928768e+01 1.883274e+01 1.921336e+01 2.690410e+01 1.948292e+01 3.306455e+01 2.369148e+01 1.669174e+01 2.176772e+01 5.003397e-03 4.701019e-01 7.816923e-01 1.259939e+00 1.276173e+00 1.765326e+00 1.277569e+00 1.907262e+00 1.968283e+00 1.405792e+00 2.628182e+00 1.410386e+00 2.342452e+00 1.791833e-04 8.518001e-02 9.854288e-02 1.623242e-01 2.573863e-01 2.375514e-01 1.362407e-01 2.829417e-01 2.307976e-01 3.348943e-01 2.674888e-01 2.555246e-01 2.665408e-01 4.185337e-05
<GCONST> 6.839349e+01
<MIXTURE> 4 9.662756e-02
<MEAN> 39
 1.656515e+00 1.740551e+00 -5.376975e-01 -3.826176e-01 -1.468889e+00 -2.018983e+00 -9.979494e-01 -1.535322e+00 -6.103468e-01 9.808656e-01 -6.060458e-01 3.793912e-01 9.094090e-01 7.723863e-01 3.200899e-02 1.458401e-01 6.205078e-01 5.147065e-01 2.598219e-01 -1.357199e-01 -1.379046e-01 3.167021e-01 9.721336e-01 4.660743e-01 3.888399e-01 -1.183420e-02 5.640271e-02 -4.502838e-02 -1.693099e-02 6.979118e-03 9.856916e-02 3.713153e-02 -1.263524e-01 -6.085937e-02 4.171149e-02 -1.171169e-01 8.247463e-02 5.269741e-02 -1.791313e-03
<VARIANCE> 39
 6.262616e+00 4.883045e+00 5.985350e+00 1.066527e+01 7.763556e+00 7.963517e+00 1.727501e+01 2.023485e+01 1.650161e+01 1.722543e+01 1.233562e+01 1.086023e+01 1.703453e-03 4.452634e-01 3.670881e-01 7.645882e-01 6.939103e-01 1.014843e+00 1.555300e+00 1.599042e+00 1.503285e+00 1.590923e+00 1.700993e+00 1.529939e+00 1.057308e+00 4.373670e-05 7.856933e-02 8.700854e-02 1.188858e-01 2.025350e-01 1.771615e-01 2.119908e-01 2.006243e-01 3.488381e-01 2.938635e-01 3.215799e-01 1.694455e-01 2.097351e-01 4.868824e-06
<GCONST> 5.115246e+01
<MIXTURE> 5 8.672904e-02
<MEAN> 39
 -4.311897e+00 1.082565e+01 -4.671623e+00 -3.612274e+00 -1.961680e+00 -1.143453e+01 2.256877e+00 -4.894220e+00 7.385305e-01 -2.511167e+00 -2.930868e+00 1.596812e+00 8.751207e-01 -1.521280e-01 -1.706164e+00 1.592223e+00 -2.745955e+00 1.765810e+00 -6.285686e-01 5.708449e-01 7.619774e-01 -2.623104e-01 8.331153e-02 1.367430e-01 -8.132002e-01 -5.502563e-03 4.280031e-01 -5.618899e-01 5.356199e-01 6.483759e-02 -4.721928e-01 8.557252e-01 -6.617109e-01 3.801019e-01 -3.005251e-01 -1.409099e-01 6.387752e-02 -6.583387e-02 -2.575182e-03
<VARIANCE> 39
 1.741874e+01 2.984953e+01 1.519889e+01 1.734997e+01 2.349998e+01 3.578310e+01 1.941769e+01 2.148840e+01 2.002582e+01 3.105817e+01 3.380750e+01 4.745469e+01 5.845179e-03 5.568625e-01 1.262438e+00 1.428610e+00 1.322671e+00 2.296917e+00 2.654854e+00 2.722255e+00 2.119515e+00 2.028937e+00 2.026444e+00 1.054869e+00 2.114993e+00 6.532110e-05 9.236583e-02 2.059965e-01 2.299796e-01 3.562311e-01 5.505770e-01 3.296601e-01 3.383661e-01 3.068797e-01 2.615348e-01 4.747356e-01 2.051935e-01 2.929754e-01 1.054379e-05
<GCONST> 7.457690e+01
<MIXTURE> 6 1.880437e-01
<MEAN> 39
 2.997073e+00 1.256042e+01 -3.220141e+00 -9.569302e-01 -2.915650e+00 -5.777320e+00 -3.747014e+00 -9.275628e-01 -3.266877e-01 -1.980895e+00 -2.221939e+00 9.062421e-01 8.076470e-01 4.006156e-01 -5.132803e-01 6.610331e-01 -1.743091e-02 4.777042e-01 -2.448658e-02 -1.373051e-01 -1.706024e-01 -4.330176e-01 -4.613765e-02 3.105954e-01 -4.271933e-02 -1.737145e-02 -6.272652e-02 -1.215504e-01 3.282739e-01 2.368998e-01 5.307243e-02 9.688718e-02 -7.699700e-02 -1.019797e-01 -1.243999e-01 5.549585e-02 4.507934e-02 -1.260652e-01 -6.355634e-03
<VARIANCE> 39
 1.651556e+01 2.621443e+01 2.076263e+01 3.409502e+01 2.551313e+01 2.692062e+01 2.470296e+01 2.539220e+01 3.083982e+01 2.971332e+01 3.931139e+01 2.802403e+01 8.350719e-03 6.831973e-01 5.045133e-01 9.841903e-01 1.507064e+00 1.746558e+00 1.541777e+00 2.338764e+00 2.080914e+00 1.776370e+00 1.968721e+00 1.976302e+00 2.133751e+00 1.450493e-04 8.712166e-02 1.003679e-01 1.351886e-01 1.596224e-01 2.043746e-01 2.640211e-01 2.697637e-01 3.697699e-01 3.298872e-01 2.773043e-01 3.834937e-01 3.193842e-01 2.590107e-05
<GCONST> 7.322524e+01
<MIXTURE> 7 1.086761e-01
<MEAN> 39
 -2.520138e+00 1.539961e+01 7.380954e-01 -7.181027e+00 -2.154027e+00 -8.273426e+00 -9.039895e+00 7.628921e-01 2.045352e+00 -1.590859e+00 4.604697e+00 -2.032391e+00 8.806897e-01 6.047952e-02 -1.909194e+00 9.925945e-01 -2.340737e+00 6.906569e-01 3.112125e-01 1.011350e+00 9.642891e-01 4.018340e-01 1.139528e+00 -9.573216e-01 7.585787e-01 -3.075570e-03 2.876724e-01 -6.219391e-01 1.627068e-01 2.309742e-01 -3.045346e-01 8.252017e-01 3.093928e-01 2.480952e-01 -1.970442e-01 -9.240070e-02 -4.234188e-01 -8.566387e-02 -6.236040e-03
<VARIANCE> 39
 9.289589e+00 2.543777e+01 1.329234e+01 1.503836e+01 1.284710e+01 2.011208e+01 1.655613e+01 2.756781e+01 2.474160e+01 2.257261e+01 1.806090e+01 1.379222e+01 4.437887e-03 4.449203e-01 6.544540e-01 1.353410e+00 9.010876e-01 9.955730e-01 1.536634e+00 1.690463e+00 1.680910e+00 2.120867e+00 1.380227e+00 1.629121e+00 9.262607e-01 2.225849e-04 9.999190e-02 9.389976e-02 1.091672e-01 3.053607e-01 1.922666e-01 2.273034e-01 2.616207e-01 3.142405e-01 3.210225e-01 2.819289e-01 3.702183e-01 2.430610e-01 3.554260e-05
<GCONST> 6.529959e+01
<MIXTURE> 8 1.043715e-01
<MEAN> 39
 1.577932e+00 2.041338e+00 -1.729371e+00 -2.588747e-01 2.343678e-01 -2.150282e+00 -2.817455e+00 -1.358100e+00 -1.187398e-02 1.522725e-01 -7.302946e-01 1.613525e-01 9.047968e-01 4.108782e-01 -3.112505e-01 -1.132708e-01 -2.622291e-01 -5.229047e-02 -3.100000e-01 2.494631e-02 2.367043e-01 1.591290e-01 3.922755e-04 -7.693578e-02 -2.058925e-01 -1.485465e-02 1.073717e-04 -1.952047e-02 1.258681e-01 6.891666e-02 -8.440264e-02 1.088367e-02 1.642476e-01 -2.572147e-02 -1.749057e-01 -5.679704e-02 -2.730914e-02 -3.395860e-02 -3.045217e-03
<VARIANCE> 39
 7.394504e+00 8.464713e+00 8.862009e+00 6.644090e+00 7.326828e+00 1.225232e+01 1.474573e+01 7.694067e+00 1.317966e+01 8.284206e+00 1.479746e+01 1.238003e+01 2.366780e-03 2.167306e-01 7.847135e-01 9.481480e-01 1.039822e+00 1.171608e+00 1.152628e+00 2.040599e+00 1.353163e+00 1.412488e+00 1.105335e+00 2.259096e+00 1.112350e+00 6.883545e-05 4.344688e-02 9.351704e-02 1.473789e-01 1.394481e-01 1.738965e-01 2.070349e-01 2.769645e-01 1.220729e-01 1.963869e-01 1.467066e-01 2.574907e-01 1.796237e-01 1.080094e-05
<GCONST> 5.013054e+01
<MIXTURE> 9 1.196187e-01
<MEAN> 39
 -2.172731e+00 1.002988e+01 -5.491613e+00 -5.966293e+00 -6.611040e+00 -1.129037e+01 -5.585284e+00 -4.008243e+00 -5.018908e+00 -2.918813e+00 -5.738157e+00 -3.577277e+00 8.907272e-01 3.047782e-01 -4.634804e-01 1.152890e+00 -5.842987e-01 1.204198e+00 1.351468e-01 3.176752e-01 2.260150e-01 1.461792e-01 -2.530568e-01 9.090821e-01 -6.468362e-01 -1.663524e-02 3.714687e-01 9.023213e-02 6.712893e-01 5.492519e-01 4.885798e-01 8.318771e-01 2.039390e-01 3.030857e-01 1.969529e-01 2.961253e-01 3.713179e-01 4.156342e-01 -9.585550e-03
<VARIANCE> 39
 1.627862e+01 2.831137e+01 1.796886e+01 1.919278e+01 1.342581e+01 1.935099e+01 2.004968e+01 2.482387e+01 2.119842e+01 2.206022e+01 1.983161e+01 4.967864e+01 3.860380e-03 4.800656e-01 5.337085e-01 1.381134e+00 1.194680e+00 1.297958e+00 1.587673e+00 2.018037e+00 1.251886e+00 2.199603e+00 1.377166e+00 1.454400e+00 1.945464e+00 1.831665e-04 8.957569e-02 1.217232e-01 1.860872e-01 2.042588e-01 2.081699e-01 1.981702e-01 3.860069e-01 3.248919e-01 4.180726e-01 3.412283e-01 2.910760e-01 3.733065e-01 3.499974e-05
<GCONST> 6.975939e+01
<STATE> 7
<NUMMIXES> 9
<MIXTURE> 1 1.293648e-01
<MEAN> 39
 8.455438e-01 1.136117e+01 -1.018916e+00 -7.415787e+00 -2.090754e+00 -1.032956e+01 -1.392788e+00 -3.259370e-01 -2.690238e+00 5.810325e-01 -3.202126e-01 1.281443e-01 8.629205e-01 8.450396e-01 -8.944214e-01 2.417324e+00 1.109378e+00 1.576012e+00 1.534470e+00 -5.049117e-02 8.282563e-01 -2.989662e-01 -4.632953e-02 1.555091e-02 -1.263136e+00 -5.168182e-02 -4.200838e-01 -2.098239e-01 1.339859e-01 1.261070e+00 1.736544e-01 1.052275e+00 2.000743e-02 2.926551e-02 1.633866e-02 7.798366e-02 1.571880e-01 3.581999e-01 -2.506465e-02
<VARIANCE> 39
 7.278555e+00 2.599067e+01 1.168908e+01 2.400980e+01 1.882218e+01 2.212860e+01 1.934119e+01 3.055398e+01 2.156596e+01 3.178214e+01 2.768031e+01 6.722363e+01 4.107742e-03 1.512898e+00 8.696272e-01 1.273571e+00 1.815461e+00 2.202266e+00 2.581332e+00 3.174385e+00 3.282729e+00 3.727462e+00 3.944093e+00 4.985238e+00 5.276940e+00 5.549212e-04 2.091277e-01 2.280241e-01 2.300265e-01 3.597658e-01 3.683401e-01 2.926822e-01 3.910097e-01 4.911237e-01 4.107366e-01 4.452827e-01 4.984460e-01 4.066792e-01 1.154284e-04
<GCONST> 8.541551e+01
<MIXTURE> 2 8.975910e-02
<MEAN> 39
 -4.505719e+00 6.853915e+00 5.251828e-01 -1.183280e+01 1.062388e+00 -9.877057e+00 -1.212675e+00 -8.295082e-01 -2.662989e+00 -3.587444e-01 3.917811e-01 8.861073e-01 8.658398e-01 1.207113e+00 -2.253967e+00 2.797661e+00 -6.846387e-01 -6.703551e-01 1.846071e+00 -1.071437e+00 6.883313e-01 3.218527e-01 -8.132983e-01 4.228931e-01 -8.751689e-01 -1.564860e-02 5.213285e-01 -1.051805e-01 -2.432336e-01 1.421429e+00 -8.499441e-01 5.510419e-01 -5.094757e-02 -2.213168e-01 3.517804e-01 -1.905099e-01 -5.612653e-02 2.677723e-01 -2.478959e-03
<VARIANCE> 39
 2.231530e+01 3.362180e+01 2.398381e+01 1.862978e+01 2.907018e+01 3.586985e+01 2.516113e+01 1.953148e+01 1.368079e+01 3.387641e+01 5.975632e+01 7.205434e+01 7.258652e-03 8.638067e-01 2.441998e+00 1.653221e+00 2.404697e+00 3.739935e+00 3.284140e+00 3.489579e+00 2.941561e+00 2.046392e+00 3.563272e+00 2.106428e+00 3.134886e+00 1.696219e-04 1.637638e-01 3.139024e-01 5.045754e-01 6.950476e-01 5.026651e-01 4.671586e-01 7.204321e-01 4.600940e-01 2.807980e-01 4.448162e-01 3.325119e-01 4.134365e-01 3.051868e-05
<GCONST> 8.825274e+01
<MIXTURE> 3 1.731940e-01
<MEAN> 39
 1.247180e+00 8.354636e+00 -2.947520e+00 -2.931100e+00 -8.629850e-02 -3.678055e+00 -1.769435e+00 2.990076e-03 2.126526e-01 -1.905470e-02 -2.103158e+00 -2.819916e+00 8.205098e-01 1.142592e+00 -2.914678e-01 5.405516e-01 4.627797e-01 1.356127e+00 8.567305e-01 8.303788e-01 3.056083e-01 2.381725e-01 1.575469e-01 -3.515311e-01 -6.198981e-01 -2.859016e-02 -9.899999e-02 4.702153e-02 3.077727e-01 3.749636e-01 -1.369709e-01 7.724086e-02 -2.407678e-02 -6.430070e-02 5.731885e-03 2.338469e-02 2.865134e-01 3.404996e-01 -3.597500e-03
<VARIANCE> 39
 1.246130e+01 4.174641e+01 1.943308e+01 1.803995e+01 2.666349e+01 1.928635e+01 3.719022e+01 2.013953e+01 2.590391e+01 1.929491e+01 2.701057e+01 3.682725e+01 5.826711e-03 7.891762e-01 8.577355e-01 2.505305e+00 1.556208e+00 1.626154e+00 1.694164e+00 2.505220e+00 1.346961e+00 1.898853e+00 2.623660e+00 4.236413e+00 3.786854e+00 3.988438e-04 1.188706e-01 1.028076e-01 2.965828e-01 2.064001e-01 2.752548e-01 1.604117e-01 3.262791e-01 2.572050e-01 2.815481e-01 3.035068e-01 3.351296e-01 2.304797e-01 6.706607e-05
<GCONST> 7.695164e+01
<MIXTURE> 4 1.449711e-01
<MEAN> 39
 5.593431e+00 8.835859e+00 -2.775942e+00 2.137209e+00 -3.708940e+00 -7.634581e+00 -4.858689e+00 -3.015780e+00 -3.221950e+00 -2.449141e+00 -1.799009e+00 1.901756e+00 7.865206e-01 3.503872e-01 -3.150271e-01 1.710785e+00 8.939955e-01 6.160899e-01 2.422076e-01 -1.925770e-01 -6.874145e-01 -3.663826e-01 3.089358e-01 6.668428e-01 -6.940513e-02 -2.635441e-02 -3.189701e-01 2.738081e-02 4.381886e-01 2.513161e-01 3.232923e-01 4.990452e-01 1.784155e-01 5.697957e-02 2.771279e-01 1.834180e-01 7.015690e-04 -1.688442e-01 -1.215436e-02
<VARIANCE> 39
 1.919324e+01 3.501024e+01 2.328951e+01 1.828292e+01 2.760279e+01 2.143000e+01 3.142275e+01 5.042084e+01 3.264054e+01 3.534836e+01 3.716613e+01 2.895476e+01 1.158118e-02 7.107117e-01 8.226938e-01 1.328918e+00 1.746537e+00 1.517853e+00 1.841304e+00 3.349279e+00 2.847412e+00 2.015178e+00 1.950007e+00 2.609256e+00 2.482304e+00 1.675098e-04 8.721324e-02 1.762664e-01 2.895417e-01 2.045338e-01 2.249226e-01 3.378880e-01 3.634259e-01 5.735323e-01 3.726208e-01 3.766623e-01 3.162769e-01 3.533379e-01 4.633497e-05
<GCONST> 8.041471e+01
<MIXTURE> 5 8.447160e-02
<MEAN> 39
 -3.191128e+00 7.755793e+00 2.071811e+00 -1.317689e+01 -1.152040e+00 -5.445430e+00 -5.815288e+00 3.609403e+00 1.081866e+00 7.602049e-01 -1.626903e-01 -1.024655e+00 9.163354e-01 5.578281e-01 -3.345867e+00 8.669084e-01 -1.231597e+00 -9.529723e-01 2.541392e+00 9.198017e-01 7.743509e-01 -6.203420e-01 2.402078e-01 -1.629224e+00 3.874334e-01 -5.554337e-04 3.125112e-01 -3.493789e-01 -2.319806e-01 1.218688e+00 -7.072108e-01 2.747206e-01 2.951393e-01 -5.641736e-01 -1.607924e-01 -2.738280e-01 -1.438636e-01 -1.618278e-01 -2.806496e-03
<VARIANCE> 39
 9.010365e+00 1.965901e+01 2.233347e+01 1.764607e+01 1.653255e+01 1.686927e+01 2.890098e+01 2.396098e+01 2.502910e+01 2.158177e+01 2.636105e+01 1.494874e+01 3.919708e-03 5.203695e-01 7.909136e-01 1.216104e+00 1.646548e+00 2.140129e+00 2.553332e+00 3.153033e+00 2.427707e+00 2.208325e+00 2.012153e+00 3.596189e+00 2.102983e+00 6.691788e-05 7.207111e-02 1.454539e-01 1.997715e-01 2.542889e-01 2.093608e-01 4.774661e-01 3.312322e-01 4.646495e-01 3.537854e-01 3.436759e-01 3.990518e-01 2.482588e-01 1.365832e-05
<GCONST> 7.183881e+01
<MIXTURE> 6 1.113722e-01
<MEAN> 39
 -3.827080e-01 1.232275e+01 6.140391e+00 -9.779173e+00 -1.552109e+00 -5.670169e+00 -7.621576e+00 7.682827e-01 3.125384e+00 -2.877304e+00 2.171787e+00 -1.157501e+00 8.175182e-01 6.212496e-01 -1.380432e+00 1.510883e+00 1.330653e+00 5.269622e-01 1.980359e+00 1.353712e+00 6.730478e-01 5.698565e-01 1.262857e-01 -1.141653e+00 6.158308e-01 -4.044253e-02 -2.665729e-01 9.170485e-02 -3.946977e-01 1.301244e+00 2.098539e-01 5.518295e-01 2.618343e-01 4.715364e-02 -3.496462e-01 -1.839276e-01 1.580909e-01 -1.537496e-01 -1.929389e-02
<VARIANCE> 39
 8.800236e+00 3.195262e+01 1.446402e+01 2.335029e+01 1.041727e+01 1.782832e+01 1.788849e+01 2.377677e+01 2.325998e+01 1.772030e+01 1.997971e+01 2.449505e+01 3.683697e-03 1.189577e+00 1.795158e+00 1.221610e+00 2.353523e+00 1.717055e+00 2.148324e+00 1.421550e+00 1.821471e+00 2.130011e+00 2.418797e+00 2.719897e+00 1.949845e+00 3.351528e-04 1.973914e-01 2.956793e-01 2.044616e-01 2.224897e-01 3.054545e-01 2.978716e-01 3.392116e-01 3.876996e-01 3.313017e-01 4.641636e-01 3.932521e-01 4.172745e-01 9.270944e-05
<GCONST> 7.708213e+01
<MIXTURE> 7 9.741279e-02
<MEAN> 39
 5.774571e+00 1.128141e+01 -2.501417e-01 1.090578e+00 -1.288331e+00 -3.946317e+00 -3.207212e+00 -2.682964e-01 -4.604717e-01 3.243777e+00 3.549626e+00 1.807861e+00 6.917405e-01 1.861708e-01 -6.939288e-01 7.696579e-01 6.148278e-01 3.458081e-01 2.549809e-02 -1.704289e-01 -7.095193e-01 -5.829434e-01 -2.206203e-01 -1.807670e-01 -1.732569e-02 -2.755918e-02 -4.072132e-01 -2.425921e-01 8.698847e-02 -1.489704e-03 8.019936e-02 8.519596e-03 -4.425423e-02 -2.246110e-01 -1.433286e-01 -5.136587e-01 -5.597310e-01 -3.362293e-01 -4.900727e-03
<VARIANCE> 39
 8.311520e+00 3.762494e+01 1.018007e+01 1.464887e+01 1.528756e+01 2.188715e+01 3.532954e+01 2.105018e+01 2.577139e+01 2.100278e+01 2.395432e+01 3.841342e+01 1.792246e-02 9.677226e-01 7.007302e-01 1.094622e+00 1.099078e+00 1.102204e+00 1.668875e+00 3.701736e+00 1.937612e+00 1.647927e+00 2.672885e+00 2.761555e+00 2.518008e+00 2.794138e-04 1.016004e-01 8.988931e-02 1.818813e-01 1.656159e-01 2.021803e-01 3.283267e-01 3.421299e-01 2.653724e-01 3.152626e-01 2.435954e-01 2.821695e-01 4.632725e-01 6.052326e-05
<GCONST> 7.394029e+01
<MIXTURE> 8 7.683010e-02
<MEAN> 39
 -1.655389e+00 1.100915e+01 -4.807627e+00 -9.925625e+00 -7.977918e-01 -5.695181e+00 6.553955e+00 9.279257e+00 8.058413e+00 6.597537e+00 3.177967e+00 -2.426823e+00 7.891862e-01 2.838330e-01 -2.274964e+00 7.859422e-01 -9.273902e-01 2.046446e+00 3.168940e+00 1.528135e+00 9.719070e-01 -4.235521e-01 -1.347159e+00 -1.511872e-01 -4.663720e-01 -4.412066e-02 -4.578934e-02 -4.807895e-01 1.530360e-01 7.616048e-01 -7.733989e-02 9.104345e-01 -5.550624e-01 -9.487723e-01 -8.118197e-01 -7.337756e-01 -1.452893e-01 6.105072e-01 -1.102127e-02
<VARIANCE> 39
 1.254354e+01 2.693884e+01 2.827790e+01 4.543143e+01 2.918062e+01 2.140614e+01 5.274756e+01 1.825908e+01 6.009512e+01 7.492215e+01 4.683986e+01 6.304234e+01 5.900629e-03 1.282396e+00 2.779774e+00 2.614285e+00 2.156405e+00 2.966316e+00 4.625309e+00 4.723997e+00 6.248009e+00 9.219385e+00 9.505208e+00 6.982154e+00 4.335367e+00 9.598503e-04 2.556212e-01 4.582155e-01 3.755516e-01 5.806216e-01 5.872187e-01 4.041955e-01 6.857441e-01 7.376303e-01 1.102249e+00 1.128008e+00 7.706385e-01 9.539841e-01 2.127365e-04
<GCONST> 1.048422e+02
<MIXTURE> 9 9.262507e-02
<MEAN> 39
 -5.797786e-01 1.319982e+01 4.889554e+00 -3.180039e+00 -2.590658e+00 -1.439538e+00 -6.233488e+00 -1.306003e+00 -4.575415e-01 -5.743179e+00 2.072073e+00 -3.839582e+00 7.632893e-01 1.168741e+00 -2.706987e-01 8.270459e-01 1.337254e+00 1.661014e+00 1.887095e+00 1.553485e+00 -7.818017e-02 -2.289142e-01 2.970115e-01 -4.995006e-01 2.610895e-01 -5.699606e-02 -2.728974e-01 -1.852208e-01 -2.992741e-01 5.346041e-01 2.338545e-02 2.638857e-02 -1.944558e-02 -4.195957e-02 -1.659020e-01 2.149133e-01 9.507748e-02 1.163972e-01 -1.314205e-02
<VARIANCE> 39
 9.410134e+00 1.596404e+01 1.624305e+01 2.003653e+01 2.042102e+01 2.023362e+01 2.343300e+01 2.331487e+01 3.305556e+01 2.529107e+01 1.607688e+01 2.268481e+01 5.811738e-03 5.657527e-01 6.249120e-01 1.327212e+00 1.267560e+00 1.256702e+00 1.625545e+00 2.167714e+00 2.407251e+00 1.629812e+00 1.553254e+00 1.347549e+00 1.939807e+00 2.129873e-04 1.275160e-01 2.151843e-01 1.937583e-01 1.692292e-01 3.039878e-01 2.977624e-01 3.504906e-01 3.038466e-01 3.641515e-01 3.316923e-01 2.753017e-01 2.898274e-01 1.288810e-04
<GCONST> 7.230989e+01
<STATE> 8
<NUMMIXES> 9
<MIXTURE> 1 1.444239e-01
<MEAN> 39
 9.563610e-01 9.576797e+00 4.556366e+00 -1.622030e+00 -9.516540e-01 -4.212694e+00 -2.842052e+00 1.788908e+00 -7.847820e-01 -9.510390e-01 -4.793172e-01 -3.451762e+00 7.633677e-01 -1.210994e+00 -1.638687e+00 1.605806e+00 3.636633e+00 2.077781e+00 3.157589e+00 7.549121e-01 1.130613e+00 1.146707e-01 3.176873e-01 5.280145e-01 2.681505e-01 -8.332438e-02 -8.772547e-01 -5.140182e-01 -6.106988e-01 3.222658e-01 1.673608e-01 4.203943e-01 2.060125e-01 1.570168e-01 2.149687e-01 2.107317e-01 4.538079e-01 5.817130e-01 -2.749778e-02
<VARIANCE> 39
 1.107357e+01 2.399296e+01 1.001681e+01 2.103568e+01 2.031523e+01 2.629697e+01 1.944735e+01 2.042529e+01 3.544384e+01 1.950962e+01 3.064238e+01 3.062693e+01 4.686052e-03 1.423288e+00 1.583406e+00 1.847113e+00 1.795847e+00 1.814828e+00 2.221222e+00 3.099430e+00 2.307518e+00 2.109093e+00 2.990988e+00 2.699367e+00 3.765209e+00 8.617676e-04 9.511165e-02 1.380589e-01 1.534745e-01 3.229437e-01 3.425141e-01 5.337580e-01 4.963261e-01 4.673541e-01 5.523391e-01 4.135232e-01 5.983207e-01 4.190027e-01 6.602215e-05
<GCONST> 8.238916e+01
<MIXTURE> 2 1.219352e-01
<MEAN> 39
 3.744297e+00 8.867599e+00 -3.973279e-01 -1.766260e+00 -2.002138e+00 -8.221276e-01 -2.266802e+00 1.297323e+00 2.091160e+00 2.253599e+00 3.831224e+00 1.490325e+00 7.205403e-01 3.649712e-01 -2.046222e-01 6.558799e-01 5.588534e-01 5.812523e-01 8.155190e-01 6.206502e-01 6.744058e-01 6.936651e-01 5.229815e-01 7.959414e-01 8.668123e-01 -4.470197e-02 -5.120850e-01 -2.485710e-01 5.357498e-03 1.188825e-01 -1.686558e-02 -2.364195e-01 -1.072739e-01 -1.037820e-01 -1.432589e-01 -2.755476e-01 -2.045178e-01 -1.542803e-01 -5.593925e-03
<VARIANCE> 39
 1.759025e+01 4.941358e+01 2.403318e+01 1.740691e+01 2.250732e+01 3.175130e+01 5.793374e+01 2.099491e+01 3.442170e+01 2.620950e+01 3.006265e+01 3.201083e+01 1.436238e-02 6.937718e-01 9.788632e-01 1.470773e+00 1.295733e+00 1.564719e+00 1.594089e+00 1.681327e+00 1.009413e+00 2.173808e+00 1.387410e+00 2.297963e+00 1.503389e+00 1.036189e-03 1.207389e-01 2.569427e-01 2.778524e-01 2.449988e-01 4.010007e-01 3.127460e-01 4.147329e-01 2.245342e-01 2.905443e-01 3.337282e-01 3.884833e-01 2.904167e-01 2.227428e-04
<GCONST> 8.122471e+01
<MIXTURE> 3 1.194265e-01
<MEAN> 39
 4.217045e+00 8.905754e+00 1.599477e+00 6.578123e+00 6.223221e+00 -3.323873e+00 -3.329091e-01 -4.473685e-02 -7.790498e-02 -9.980373e-01 -5.273998e+00 -4.886571e+00 7.341655e-01 -3.834480e-01 -8.333105e-01 1.833329e+00 1.858041e+00 1.288359e+00 8.708643e-01 7.523283e-01 -6.388373e-01 -1.745703e-01 -2.573298e-01 -2.035109e-01 7.300447e-03 -3.370194e-02 -3.307572e-01 -2.445831e-01 -1.952556e-02 -1.976815e-01 -1.546073e-01 2.948298e-01 -1.362104e-01 9.576494e-02 2.404142e-01 1.664048e-01 5.544215e-01 3.789303e-01 -1.197941e-02
<VARIANCE> 39
 6.560678e+00 5.433984e+01 1.833671e+01 1.781548e+01 3.486489e+01 1.949903e+01 4.028138e+01 2.252902e+01 2.328217e+01 1.409595e+01 3.477173e+01 2.746642e+01 9.112178e-03 3.486214e-01 6.445218e-01 1.571372e+00 1.302176e+00 1.542450e+00 1.908091e+00 2.070443e+00 2.000020e+00 1.191441e+00 2.052313e+00 2.705937e+00 1.751764e+00 2.265751e-04 8.802611e-02 1.457928e-01 4.010336e-01 2.972265e-01 3.472087e-01 2.781174e-01 5.434242e-01 3.464302e-01 2.840321e-01 3.098661e-01 4.885112e-01 3.553197e-01 5.964116e-05
<GCONST> 7.601470e+01
<MIXTURE> 4 1.324346e-01
<MEAN> 39
 3.350053e+00 1.393245e+01 6.460876e+00 -1.599463e+00 -4.115823e-01 -2.425521e-01 -3.139647e+00 4.441020e-01 -9.068211e-01 -4.090224e+00 1.150040e+00 -2.438116e+00 6.784874e-01 3.941277e-02 -3.027244e-01 3.812895e-01 2.739177e+00 1.343410e+00 1.611561e+00 1.015580e+00 -2.616021e-01 -5.992742e-01 1.351255e-01 5.789303e-02 4.495625e-01 -9.460189e-02 -1.057145e+00 -4.634234e-01 -8.747171e-01 -7.524593e-02 -2.337551e-01 -3.552909e-01 -1.615974e-01 8.244569e-02 2.964488e-01 3.422671e-01 3.182726e-01 1.919525e-01 -2.130939e-02
<VARIANCE> 39
 9.073394e+00 2.363010e+01 2.210400e+01 3.031507e+01 1.869687e+01 2.140308e+01 2.471335e+01 3.323162e+01 3.311144e+01 3.848119e+01 2.261973e+01 3.359220e+01 6.414726e-03 1.186878e+00 1.580013e+00 1.658945e+00 1.691795e+00 1.670151e+00 1.903201e+00 2.167698e+00 2.153449e+00 2.408416e+00 3.183475e+00 1.924103e+00 2.225087e+00 8.534279e-04 1.072765e-01 3.878781e-01 3.802065e-01 4.522098e-01 3.371965e-01 3.370513e-01 4.148180e-01 4.253723e-01 3.972151e-01 5.901965e-01 4.605758e-01 5.007102e-01 1.424109e-04
<GCONST> 8.514835e+01
<MIXTURE> 5 8.369997e-02
<MEAN> 39
 -2.516776e+00 7.194136e-01 6.126006e+00 -1.078590e+01 -6.997160e+00 -1.613791e+00 -2.476944e+00 -1.634401e-02 1.685027e+00 -4.260497e-01 -1.174092e+00 1.004633e+00 8.784880e-01 1.943239e+00 -3.164705e+00 3.740490e-01 2.985433e+00 -2.657830e+00 1.233652e+00 1.789026e+00 3.759337e-05 -1.011220e-01 8.797918e-02 -5.704372e-01 -5.256149e-01 -1.162900e-02 3.729790e-01 4.790413e-01 -1.260333e+00 1.411263e+00 5.915496e-01 -1.141368e+00 1.490873e-01 2.618049e-02 -4.432549e-02 -1.402221e-01 1.209667e-01 1.150256e-01 4.368019e-04
<VARIANCE> 39
 1.596732e+01 2.821586e+01 2.619915e+01 2.063231e+01 2.114130e+01 4.512234e+01 5.458975e+01 3.275695e+01 3.368566e+01 3.947866e+01 3.531781e+01 4.905043e+01 9.589007e-03 7.602463e-01 1.933164e+00 1.771297e+00 2.660533e+00 1.931511e+00 3.371714e+00 2.726116e+00 3.466236e+00 2.777250e+00 3.802371e+00 3.537468e+00 2.605872e+00 4.001234e-04 1.327545e-01 1.541200e-01 3.630295e-01 4.245776e-01 4.878182e-01 7.010083e-01 5.839352e-01 5.373218e-01 7.190146e-01 6.745764e-01 3.701977e-01 3.196496e-01 4.152043e-05
<GCONST> 9.030369e+01
<MIXTURE> 6 1.068455e-01
<MEAN> 39
 5.031583e+00 8.271557e+00 1.035500e-02 1.689640e+00 -3.450336e+00 -5.651636e+00 -4.980193e+00 -5.575047e+00 -2.364130e+00 8.997592e-01 4.505735e-01 3.442458e+00 7.430452e-01 -3.936658e-01 -6.312045e-01 2.083618e+00 1.307555e+00 1.417028e+00 1.429004e+00 4.184990e-01 2.955601e-01 -2.093852e-03 1.223077e-01 1.175231e-01 -5.323610e-01 -7.170277e-02 -6.568929e-01 -3.186668e-01 6.709626e-02 2.649787e-01 5.131999e-01 7.514502e-01 7.238012e-01 8.038365e-01 4.575767e-01 1.180887e-01 4.490430e-03 -5.004491e-02 -2.716810e-02
<VARIANCE> 39
 1.467432e+01 4.019325e+01 1.747530e+01 1.657526e+01 1.537114e+01 2.039960e+01 2.314476e+01 2.060552e+01 1.904462e+01 2.205058e+01 4.384166e+01 2.686293e+01 7.157565e-03 9.781244e-01 9.164560e-01 1.322946e+00 1.190356e+00 1.585654e+00 1.522749e+00 1.628431e+00 2.155751e+00 1.705267e+00 3.043389e+00 3.061779e+00 2.195889e+00 7.470842e-04 1.587207e-01 1.840260e-01 2.244927e-01 2.575984e-01 1.631282e-01 1.885046e-01 3.507285e-01 3.652982e-01 3.033324e-01 2.915429e-01 4.485619e-01 4.071947e-01 5.888698e-05
<GCONST> 7.686215e+01
<MIXTURE> 7 1.212507e-01
<MEAN> 39
 1.646463e+00 7.846954e+00 4.044523e+00 -5.523703e+00 1.405590e+00 -1.618500e+00 -4.888533e+00 -1.717524e+00 -2.280241e+00 -3.975534e+00 -1.419017e+00 -3.147978e+00 7.798589e-01 9.614096e-01 -4.996614e-01 1.549006e+00 1.080214e+00 4.250939e-01 1.545659e+00 -7.775548e-01 -5.191417e-01 -2.655331e-01 -8.220103e-01 -1.776572e-01 -6.088492e-02 -2.708001e-02 -5.166976e-01 1.050271e-01 -7.691079e-01 -1.000817e-02 -5.006612e-01 -5.303437e-01 3.046029e-01 1.772591e-01 3.924243e-01 4.984149e-01 1.987519e-01 3.181823e-01 1.020037e-02
<VARIANCE> 39
 1.572712e+01 2.958435e+01 2.576504e+01 1.915289e+01 2.541141e+01 2.317467e+01 2.446207e+01 2.409833e+01 1.426382e+01 2.513544e+01 1.832967e+01 2.563564e+01 7.120001e-03 8.898219e-01 1.082947e+00 1.773199e+00 1.644206e+00 2.519772e+00 2.018805e+00 2.953481e+00 2.867179e+00 2.165180e+00 2.587779e+00 2.962301e+00 4.309175e+00 3.320901e-04 2.032789e-01 1.367068e-01 4.465958e-01 3.604339e-01 5.794497e-01 4.784211e-01 5.687009e-01 5.328026e-01 2.488849e-01 5.536016e-01 5.491044e-01 8.699637e-01 6.824809e-05
<GCONST> 8.472461e+01
<MIXTURE> 8 8.574188e-02
<MEAN> 39
 6.547988e+00 1.126593e+01 9.872457e-01 1.202212e+00 -9.755982e-01 -7.256855e+00 -7.494790e+00 -6.478907e+00 -3.473858e+00 -1.591785e+00 -3.386177e+00 -9.492557e-01 6.671394e-01 -3.778825e-01 -9.460628e-01 1.490904e+00 1.019836e+00 6.657420e-01 5.014606e-01 -3.818564e-01 -4.750388e-01 -5.606964e-01 -6.224168e-01 -2.438500e-01 -4.047708e-01 -6.496557e-02 -6.645404e-01 -4.564896e-01 -1.086222e-01 1.793897e-01 1.760184e-01 6.957362e-01 7.814505e-01 9.352580e-01 3.189003e-01 2.995073e-01 3.258544e-01 2.766879e-01 -2.007246e-02
<VARIANCE> 39
 1.205265e+01 2.615296e+01 1.066231e+01 2.247654e+01 2.197178e+01 1.530736e+01 2.717051e+01 2.709731e+01 3.818922e+01 2.125733e+01 2.099265e+01 2.036427e+01 1.964574e-02 1.080337e+00 1.267161e+00 1.270470e+00 1.073172e+00 1.783315e+00 1.614956e+00 1.776226e+00 2.059297e+00 3.109606e+00 4.407015e+00 2.490482e+00 3.356613e+00 9.174775e-04 3.555948e-01 2.267854e-01 2.051791e-01 2.470737e-01 3.606408e-01 3.360934e-01 4.134485e-01 7.506579e-01 7.187687e-01 6.482443e-01 4.040800e-01 3.951927e-01 8.660155e-05
<GCONST> 8.415019e+01
<MIXTURE> 9 8.424166e-02
<MEAN> 39
 -1.718221e+00 1.863038e+00 -1.476798e+00 -1.286791e+01 2.301323e+00 5.154851e+00 3.371983e+00 6.851825e+00 3.577736e+00 -2.880345e+00 1.346689e+00 -8.089928e-01 7.438638e-01 -2.396517e-02 -3.423906e+00 7.471149e-01 1.173586e+00 -5.080236e-02 3.702209e+00 4.938048e-01 -2.181096e+00 -7.273538e-01 -9.056136e-01 -2.928218e-01 1.550816e+00 -3.054938e-02 -6.152296e-02 1.220466e-01 -2.409064e-01 1.047604e+00 -6.014864e-01 -8.495667e-01 -3.033074e-01 -1.071906e+00 -3.156303e-01 5.100917e-01 -2.933275e-01 1.059326e-01 3.928061e-03
<VARIANCE> 39
 9.032178e+00 3.177505e+01 2.160554e+01 2.219974e+01 4.133427e+01 3.466064e+01 6.949590e+01 3.994862e+01 4.072086e+01 5.004499e+01 4.328906e+01 2.647150e+01 1.580434e-02 4.192285e-01 1.520150e+00 2.123180e+00 2.256423e+00 3.669043e+00 2.892035e+00 6.186977e+00 4.638029e+00 5.212222e+00 4.349139e+00 7.311523e+00 5.459213e+00 1.980676e-03 1.488136e-01 2.457809e-01 4.080678e-01 3.760657e-01 5.821174e-01 5.599689e-01 1.302239e+00 8.059810e-01 1.539592e+00 1.051532e+00 1.057852e+00 7.372503e-01 2.681763e-04
<GCONST> 1.023943e+02
<STATE> 9
<NUMMIXES> 9
<MIXTURE> 1 6.839354e-02
<MEAN> 39
 -6.593744e+00 1.361276e+00 5.941964e+00 7.513078e+00 7.568827e+00 4.412521e+00 3.422394e+00 4.909772e+00 -3.105406e+00 1.528909e+00 4.580854e-01 -1.061039e+00 3.634698e-01 -2.063979e+00 -2.345773e+00 3.247229e-01 1.150539e+00 1.891639e+00 2.862149e+00 2.181478e+00 2.781688e+00 1.627370e+00 1.077679e+00 5.584351e-01 -3.743466e-02 -1.107175e-01 4.454946e-01 4.151115e-01 -5.882757e-01 -9.507294e-01 -7.817574e-01 -6.611989e-01 -1.985865e-01 -1.370767e-01 2.641853e-01 3.221864e-02 7.030589e-02 3.176030e-02 2.629801e-02
<VARIANCE> 39
 1.137078e+01 1.806271e+01 1.003335e+01 1.636500e+01 2.039557e+01 2.042561e+01 2.176601e+01 1.631467e+01 2.909644e+01 3.865108e+01 5.948151e+01 3.096081e+01 2.268753e-02 5.774230e-01 1.375049e+00 1.413757e+00 1.783938e+00 1.578316e+00 1.651430e+00 1.751968e+00 3.340417e+00 2.511559e+00 3.452487e+00 2.289729e+00 4.467781e+00 2.154970e-03 1.209839e-01 1.136739e-01 1.345139e-01 3.376518e-01 2.797234e-01 2.048863e-01 4.145012e-01 4.677901e-01 3.699216e-01 4.527009e-01 4.465475e-01 4.023718e-01 2.852179e-04
<GCONST> 8.298605e+01
<MIXTURE> 2 1.790336e-01
<MEAN> 39
 9.685006e-01 7.786802e+00 3.104103e+00 -2.980749e+00 5.453323e-01 1.225821e+00 -2.334115e+00 -7.853373e-01 -8.400394e-01 -3.477443e+00 -5.782781e-02 -5.751844e-01 7.134904e-01 -2.720727e-01 -3.611367e-01 -8.544520e-02 8.274059e-01 -1.917547e-02 -5.700976e-02 3.062462e-01 1.081235e-02 4.513995e-01 3.801856e-01 3.744860e-01 4.194335e-01 -9.129866e-03 -4.760713e-01 1.201845e-01 -6.536419e-01 -4.215715e-01 -3.462923e-01 -7.784365e-01 1.281302e-01 1.425534e-01 3.735011e-01 4.929266e-01 1.004805e-01 -1.233877e-02 1.633868e-02
<VARIANCE> 39
 1.631628e+01 4.347594e+01 3.984039e+01 4.006521e+01 3.601561e+01 4.766264e+01 6.146865e+01 3.639705e+01 3.217888e+01 4.143178e+01 4.003801e+01 3.130484e+01 1.481078e-02 6.787147e-01 1.742065e+00 1.313105e+00 2.465108e+00 2.139385e+00 1.914903e+00 2.325784e+00 2.972156e+00 2.215771e+00 2.237422e+00 2.471447e+00 2.409992e+00 1.109173e-03 2.418078e-01 2.132827e-01 7.113071e-01 6.467757e-01 6.169043e-01 6.436772e-01 1.056486e+00 6.355857e-01 7.894670e-01 9.679093e-01 9.398648e-01 1.021109e+00 1.713990e-04
<GCONST> 9.811685e+01
<MIXTURE> 3 9.873229e-02
<MEAN> 39
 1.523556e+00 9.168667e+00 3.485151e+00 4.759052e+00 -2.254618e-01 -3.314386e+00 -3.685404e+00 -5.451828e+00 -4.944193e+00 -7.644464e-01 -7.666619e-01 3.864139e-01 5.764638e-01 -2.389821e+00 -2.575565e+00 1.000482e+00 2.037984e+00 2.141689e+00 3.170512e+00 1.825046e+00 2.641560e+00 1.686492e+00 1.607993e+00 1.154610e+00 1.043908e-01 -1.364502e-01 -6.089203e-01 -3.673992e-01 -4.952877e-01 -1.911711e-01 1.603226e-01 4.141838e-01 7.183670e-01 1.058110e+00 7.802511e-01 5.120119e-01 1.891563e-01 1.464889e-01 -7.144534e-03
<VARIANCE> 39
 2.144349e+01 2.541700e+01 1.692320e+01 1.727477e+01 1.918489e+01 2.473839e+01 3.057155e+01 2.948125e+01 3.133615e+01 2.824800e+01 3.076744e+01 3.388804e+01 1.407934e-02 9.464026e-01 1.282126e+00 9.811155e-01 1.605672e+00 1.876992e+00 1.949458e+00 1.895182e+00 3.921332e+00 2.351087e+00 3.332455e+00 2.904006e+00 2.600125e+00 1.279797e-03 3.420411e-01 2.494382e-01 1.953166e-01 2.447498e-01 4.197665e-01 3.567568e-01 4.023538e-01 5.694324e-01 5.311723e-01 7.341712e-01 4.793027e-01 6.251258e-01 3.109205e-04
<GCONST> 8.836743e+01
<MIXTURE> 4 1.278694e-01
<MEAN> 39
 -1.161413e+00 6.357769e+00 6.896563e+00 8.346278e+00 6.145080e+00 2.264139e+00 -1.113485e+00 1.690115e+00 -6.506172e-01 -2.993472e+00 -2.520097e-01 -4.103710e+00 6.435185e-01 -2.118838e+00 -2.717385e+00 -7.506905e-02 2.283642e+00 1.415229e+00 2.194521e+00 9.258137e-01 7.398722e-01 6.548851e-01 6.653406e-01 8.679733e-01 1.788170e+00 -1.052966e-01 -3.928358e-01 -3.449311e-01 -9.091681e-01 -1.017076e+00 -6.486651e-01 -4.842241e-01 -3.063536e-02 9.221477e-02 3.345993e-01 4.352296e-01 3.356002e-01 4.399569e-01 -1.727160e-02
<VARIANCE> 39
 2.020649e+01 3.470868e+01 1.253751e+01 1.928260e+01 2.297745e+01 2.796812e+01 3.028533e+01 1.973171e+01 3.461226e+01 2.470317e+01 3.260255e+01 2.677816e+01 6.890584e-03 1.145041e+00 1.502674e+00 1.845528e+00 2.702103e+00 2.263152e+00 3.090906e+00 3.032804e+00 2.232729e+00 2.054434e+00 3.280632e+00 2.420959e+00 1.913997e+00 9.996515e-04 2.027837e-01 2.386106e-01 2.156212e-01 2.537599e-01 2.548138e-01 3.911458e-01 5.147186e-01 4.239466e-01 4.566253e-01 6.105070e-01 4.691499e-01 4.641431e-01 1.089572e-04
<GCONST> 8.597417e+01
<MIXTURE> 5 8.033450e-02
<MEAN> 39
 -9.636930e-01 -6.560911e+00 1.117766e+00 -9.412438e+00 -5.116416e+00 8.190854e+00 3.361339e+00 -2.014785e+00 1.436837e+00 4.103191e-01 -7.612536e+00 1.615829e+00 8.423831e-01 2.977916e-01 -2.677693e+00 -7.015105e-01 2.091082e+00 -8.021041e-01 8.749818e-01 2.062452e+00 -2.141147e+00 -2.629414e+00 7.371078e-01 -1.332335e+00 -3.206079e-01 1.028339e-02 -2.294144e-02 6.307469e-01 -3.152543e-01 2.491060e-01 3.510181e-01 -1.039439e+00 -2.435917e-01 3.013521e-01 -4.443872e-01 -4.506059e-02 8.433293e-01 -4.373133e-01 5.292226e-03
<VARIANCE> 39
 6.381865e+00 2.680757e+01 2.357903e+01 1.593273e+01 2.485593e+01 1.730284e+01 2.597286e+01 4.400079e+01 3.619164e+01 2.358568e+01 3.157623e+01 2.927395e+01 1.617756e-02 3.672812e-01 1.246951e+00 8.825271e-01 2.034945e+00 1.042754e+00 2.115921e+00 5.288626e+00 2.659542e+00 3.925692e+00 2.785386e+00 2.941335e+00 2.655065e+00 6.684272e-04 5.821796e-02 9.254997e-02 1.261471e-01 3.012127e-01 2.245908e-01 2.614240e-01 2.835583e-01 7.372364e-01 4.394863e-01 5.058482e-01 7.514328e-01 6.452209e-01 9.314070e-05
<GCONST> 8.128098e+01
<MIXTURE> 6 1.464659e-01
<MEAN> 39
 1.719982e+00 6.781908e+00 1.537493e+00 6.171098e-01 -9.507120e-01 -1.102196e+00 -1.127604e+00 1.024823e+00 1.809307e+00 2.944033e+00 5.211883e+00 2.806245e+00 4.578194e-01 -1.581705e+00 -1.777481e+00 6.168103e-01 9.983187e-01 1.128920e+00 1.589659e+00 9.154645e-01 7.673747e-01 2.500629e-01 -2.152798e-02 -5.627013e-01 -9.577007e-01 -1.147569e-01 -2.745622e-01 -2.181112e-01 -3.723492e-02 4.144157e-02 1.832448e-01 1.231534e-01 1.591762e-01 2.259955e-01 1.175804e-01 2.732503e-02 -3.180779e-01 -2.272779e-01 4.197035e-03
<VARIANCE> 39
 1.633882e+01 4.143966e+01 1.845661e+01 2.785282e+01 1.830933e+01 2.178410e+01 2.839132e+01 2.244467e+01 3.666984e+01 4.666135e+01 3.365911e+01 3.007269e+01 2.930880e-02 7.271665e-01 1.679375e+00 2.787674e+00 2.284110e+00 2.746583e+00 2.623109e+00 2.397917e+00 1.860955e+00 2.766417e+00 3.114564e+00 3.677546e+00 2.779749e+00 1.763629e-03 1.588260e-01 3.357411e-01 4.351632e-01 3.881897e-01 4.256528e-01 5.184391e-01 3.689863e-01 3.677478e-01 4.229395e-01 5.779684e-01 5.978950e-01 3.213812e-01 6.366164e-04
<GCONST> 9.274162e+01
<MIXTURE> 7 7.896666e-02
<MEAN> 39
 1.165757e+00 -4.953593e+00 3.587730e+00 -1.414082e+00 -1.211669e+01 -6.851612e+00 3.729416e+00 -8.027986e-02 -2.078686e+00 1.118149e+00 -2.581277e-02 -5.025632e-01 8.749100e-01 2.661031e+00 -2.017043e+00 -2.629615e+00 4.359502e+00 6.441022e-01 -2.628414e+00 5.684386e-01 1.679517e+00 8.368601e-02 -4.522778e-01 -1.196212e-01 -1.555003e-03 -7.740613e-03 2.222348e-02 1.054527e+00 -1.062984e+00 -4.474844e-01 1.948801e+00 -3.559779e-01 -1.233370e+00 -2.155303e-02 4.508722e-01 -4.407800e-02 -1.188728e-01 -1.288741e-03 8.130285e-04
<VARIANCE> 39
 1.456775e+01 2.447879e+01 2.186902e+01 1.749496e+01 2.072788e+01 4.224812e+01 4.331747e+01 3.370052e+01 3.005547e+01 3.481890e+01 3.466712e+01 6.416749e+01 8.371469e-03 5.676981e-01 9.423891e-01 1.330911e+00 1.304873e+00 3.540397e+00 2.225228e+00 2.667212e+00 2.350853e+00 3.239689e+00 2.486313e+00 2.211853e+00 1.921910e+00 1.671822e-04 1.009378e-01 2.016751e-01 3.376166e-01 5.953130e-01 2.861931e-01 9.551584e-01 3.679053e-01 5.915595e-01 4.916923e-01 4.150755e-01 4.070248e-01 3.628033e-01 3.694594e-05
<GCONST> 8.407409e+01
<MIXTURE> 8 1.061877e-01
<MEAN> 39
 -4.447083e-01 1.496220e+01 6.275933e+00 2.767735e+00 2.688477e+00 1.215750e+00 -3.280345e+00 4.596445e-01 -4.750741e-01 -3.490161e+00 1.858262e+00 -1.341908e+00 4.797522e-01 -2.399124e+00 -2.322452e+00 -1.733756e+00 6.010869e-01 3.138100e-02 6.944735e-01 5.391768e-01 7.562335e-01 1.027397e+00 1.032496e+00 1.083015e+00 1.602740e+00 -1.404231e-01 -6.211911e-01 -7.857022e-01 -6.181505e-01 -7.547967e-01 -5.726022e-01 -4.260446e-01 -1.764615e-02 1.748009e-01 4.431237e-01 4.466553e-01 2.149220e-01 2.918974e-02 -1.471609e-03
<VARIANCE> 39
 1.314580e+01 2.014545e+01 1.395543e+01 2.462420e+01 2.071541e+01 2.620380e+01 1.660712e+01 2.382214e+01 5.147456e+01 3.424862e+01 2.762328e+01 2.220613e+01 9.690461e-03 8.937756e-01 1.577526e+00 1.383785e+00 2.985779e+00 1.711006e+00 2.936852e+00 2.021051e+00 2.076963e+00 2.452578e+00 2.895747e+00 2.317894e+00 2.140052e+00 7.142251e-04 1.880119e-01 2.547340e-01 3.004957e-01 3.455357e-01 3.596416e-01 5.507170e-01 4.130969e-01 4.548965e-01 5.237537e-01 4.313067e-01 5.201456e-01 3.907687e-01 2.531000e-04
<GCONST> 8.580161e+01
<MIXTURE> 9 1.140163e-01
<MEAN> 39
 4.005109e+00 7.635904e+00 6.771124e+00 6.319623e+00 1.713768e+00 -2.056642e+00 -5.636319e+00 -5.767907e+00 -3.937567e+00 -1.850969e+00 -2.358789e+00 -3.306101e-01 6.381332e-01 -1.249372e+00 -1.504403e+00 1.136925e+00 1.234025e+00 1.609014e+00 1.986929e+00 1.202872e+00 5.956784e-01 3.045700e-01 1.830171e-01 4.385485e-01 2.131830e-01 -8.672227e-02 -5.316463e-01 -5.200405e-01 -7.327213e-01 -3.079052e-01 2.770849e-02 3.863805e-01 7.335836e-01 8.529056e-01 7.220627e-01 3.937743e-01 2.521641e-01 1.650191e-01 -2.261213e-02
<VARIANCE> 39
 1.762881e+01 3.587856e+01 1.178866e+01 1.751402e+01 2.047505e+01 1.734986e+01 2.276487e+01 2.427991e+01 1.922563e+01 1.556669e+01 2.290755e+01 1.927115e+01 1.127505e-02 4.763917e-01 1.438006e+00 1.520361e+00 1.301935e+00 1.124731e+00 2.010517e+00 2.293341e+00 2.729317e+00 2.682313e+00 2.148394e+00 2.445457e+00 1.387980e+00 1.113212e-03 2.130724e-01 2.074174e-01 1.681862e-01 1.857756e-01 2.693260e-01 2.093765e-01 3.947924e-01 4.224432e-01 3.217223e-01 4.863634e-01 3.079709e-01 5.310560e-01 9.378843e-05
<GCONST> 7.788693e+01
<TRANSP> 10
 0.000000e+00 1.000000e+00 0.000000e+00 0.000000e+00 0.000000e+00 0.000000e+00 0.000000e+00 0.000000e+00 0.000000e+00 0.000000e+00
 0.000000e+00 7.748924e-01 2.251076e-01 0.000000e+00 0.000000e+00 0.000000e+00 0.000000e+00 0.000000e+00 0.000000e+00 0.000000e+00
 0.000000e+00 0.000000e+00 8.212576e-01 1.787424e-01 0.000000e+00 0.000000e+00 0.000000e+00 0.000000e+00 0.000000e+00 0.000000e+00
 0.000000e+00 0.000000e+00 0.000000e+00 8.131060e-01 1.868940e-01 0.000000e+00 0.000000e+00 0.000000e+00 0.000000e+00 0.000000e+00
 0.000000e+00 0.000000e+00 0.000000e+00 0.000000e+00 6.148856e-01 3.851145e-01 0.000000e+00 0.000000e+00 0.000000e+00 0.000000e+00
 0.000000e+00 0.000000e+00 0.000000e+00 0.000000e+00 0.000000e+00 5.018041e-01 4.981959e-01 0.000000e+00 0.000000e+00 0.000000e+00
 0.000000e+00 0.000000e+00 0.000000e+00 0.000000e+00 0.000000e+00 0.000000e+00 4.085978e-01 5.914022e-01 0.000000e+00 0.000000e+00
 0.000000e+00 0.000000e+00 0.000000e+00 0.000000e+00 0.000000e+00 0.000000e+00 0.000000e+00 3.792592e-01 6.207408e-01 0.000000e+00
 0.000000e+00 0.000000e+00 0.000000e+00 0.000000e+00 0.000000e+00 0.000000e+00 0.000000e+00 0.000000e+00 3.642809e-01 6.357191e-01
 0.000000e+00 0.000000e+00 0.000000e+00 0.000000e+00 0.000000e+00 0.000000e+00 0.000000e+00 0.000000e+00 0.000000e+00 0.000000e+00
<ENDHMM>
~h "#u"
<BEGINHMM>
<NUMSTATES> 10
<STATE> 2
<NUMMIXES> 9
<MIXTURE> 1 9.075997e-02
<MEAN> 39
 5.583741e+00 -5.951348e+00 -4.006075e+00 3.830449e+00 -5.195812e+00 -1.250727e+01 7.165448e-03 6.732038e+00 -1.223628e+00 -3.105840e+00 -2.655475e+00 -2.215013e-01 8.827166e-01 1.877939e+00 2.381396e-01 -2.382668e+00 9.482874e-01 3.262782e+00 -6.754230e-01 -3.034636e+00 6.722860e-01 1.972233e+00 3.095359e-01 -7.389693e-01 -3.038198e-01 -9.124462e-03 -1.498455e-01 5.616129e-01 2.072205e-01 -1.152289e+00 3.530834e-01 1.343256e+00 -4.038721e-01 -1.252534e+00 2.736278e-01 7.561953e-01 -2.322176e-03 -3.145664e-01 -1.550655e-04
<VARIANCE> 39
 1.306209e+01 2.400911e+01 2.109406e+01 1.722276e+01 2.638706e+01 2.535756e+01 5.141867e+01 4.282526e+01 3.091219e+01 4.230108e+01 4.232309e+01 4.642682e+01 6.040579e-03 4.572308e-01 7.104527e-01 1.568647e+00 2.245098e+00 2.009316e+00 3.007911e+00 2.341130e+00 3.895436e+00 2.370619e+00 2.492617e+00 2.054203e+00 2.970031e+00 1.507880e-04 9.253410e-02 1.803728e-01 2.143687e-01 4.357060e-01 4.754576e-01 4.382574e-01 7.678788e-01 5.844805e-01 6.135877e-01 4.713480e-01 4.809496e-01 4.775460e-01 1.645732e-05
<GCONST> 8.354312e+01
<MIXTURE> 2 1.335508e-01
<MEAN> 39
 1.021593e+01 1.590743e+00 -6.055126e+00 -2.747362e+00 2.286120e+00 -1.394019e+00 -1.522013e+00 2.970126e-01 1.141914e+00 3.982387e+00 1.318656e+00 -1.198373e+00 7.105163e-01 7.215008e-01 5.560200e-01 -5.608461e-01 -1.216422e-01 1.646055e-01 4.663585e-01 -1.236572e-01 -5.803162e-01 -5.604453e-01 2.839747e-01 6.603063e-01 2.895944e-01 2.878625e-02 -2.133031e-01 -9.601942e-02 8.591654e-03 1.112800e-02 -1.494295e-01 -1.954051e-02 8.139723e-02 -1.355912e-01 -2.405968e-01 -3.070987e-01 -1.145570e-01 1.622702e-01 -8.986875e-04
<VARIANCE> 39
 2.557242e+01 2.427501e+01 2.717661e+01 2.607420e+01 2.664597e+01 3.288902e+01 4.333973e+01 2.593142e+01 2.722890e+01 2.729472e+01 3.202133e+01 2.969337e+01 1.923542e-02 8.393217e-01 8.955797e-01 1.455031e+00 1.568800e+00 2.228630e+00 1.979850e+00 2.120129e+00 3.036600e+00 2.402146e+00 2.360950e+00 2.622629e+00 2.922353e+00 1.178441e-03 1.231776e-01 1.539914e-01 2.687168e-01 2.993144e-01 3.315849e-01 3.523876e-01 4.421854e-01 4.197620e-01 4.214643e-01 3.543646e-01 5.110108e-01 5.798663e-01 2.004223e-04
<GCONST> 8.695483e+01
<MIXTURE> 3 1.254409e-01
<MEAN> 39
 9.503464e+00 -2.890630e+00 -1.154807e+01 1.151843e-01 4.312653e+00 -3.262587e+00 -5.643749e+00 -9.848145e-01 2.978027e+00 5.192059e+00 -3.094265e+00 -5.429480e+00 8.724799e-01 9.613901e-01 1.139332e+00 3.866257e-02 -1.029781e+00 1.802882e-01 1.664318e+00 4.248126e-01 -1.577465e+00 -8.590444e-01 1.570125e+00 2.079516e+00 3.915919e-01 -1.109695e-02 -1.750004e-01 -8.493173e-02 3.487258e-01 5.614297e-02 -4.407477e-01 -1.182031e-01 6.328149e-01 3.757273e-01 -6.226387e-01 -6.707984e-01 2.569783e-01 6.824592e-01 -3.168576e-04
<VARIANCE> 39
